{"learner":{"attributes":{"scikit_learn":"{\"_estimator_type\": \"classifier\"}"},"feature_names":[],"feature_types":[],"gradient_booster":{"model":{"gbtree_model_param":{"num_parallel_tree":"1","num_trees":"30"},"iteration_indptr":[0,1,2,3,4,5,6,7,8,9,10,11,12,13,14,15,16,17,18,19,20,21,22,23,24,25,26,27,28,29,30],"tree_info":[0,0,0,0,0,0,0,0,0,0,0,0,0,0,0,0,0,0,0,0,0,0,0,0,0,0,0,0,0,0],"trees":[{"base_weights":[-8.852175E-8,2.304635E-1,-1.0674849E0,6.539509E-1,-1.6624695E-1,-1.4233578E0,5.9999996E-1,2.3201132E-1,-4.3043485E-1,1.4516129E-1,-1.6852593E-1,-6.458825E-1,-5.9016425E-2,2.8800002E-1,-4.736844E-2],"categories":[],"categories_nodes":[],"categories_segments":[],"categories_sizes":[],"default_left":[0,0,0,0,0,0,0,0,0,0,0,0,0,0,0],"id":0,"left_children":[1,3,5,7,9,11,13,-1,-1,-1,-1,-1,-1,-1,-1],"loss_changes":[2.5093666E1,1.4202208E1,1.1601381E1,1.1281101E1,1.1613913E1,1.3199352E1,1.2126316E0,0E0,0E0,0E0,0E0,0E0,0E0,0E0,0E0],"parents":[2147483647,0,0,1,1,2,2,3,3,4,4,5,5,6,6],"right_children":[2,4,6,8,10,12,14,-1,-1,-1,-1,-1,-1,-1,-1],"split_conditions":[5.9696853E-2,2.7607422E-2,9.289155E-2,1.13854066E-1,1.9127885E-2,3.379028E-2,4.4226166E-2,2.3201132E-1,-4.3043485E-1,1.4516129E-1,-1.6852593E-1,-6.458825E-1,-5.9016425E-2,2.8800002E-1,-4.736844E-2],"split_indices":[243,248,206,97,241,50,0,0,0,0,0,0,0,0,0],"split_type":[0,0,0,0,0,0,0,0,0,0,0,0,0,0,0],"sum_hessian":[9.999999E1,8.2888885E1,1.711111E1,3.9777775E1,4.3111107E1,1.4222221E1,2.8888888E0,3.822222E1,1.5555555E0,1.6222221E1,2.6888887E1,8.444444E0,5.7777777E0,1.7777777E0,1.111111E0],"tree_param":{"num_deleted":"0","num_feature":"387","num_nodes":"15","size_leaf_vector":"1"}},{"base_weights":[3.6264975E-3,4.5363557E-1,-3.1377688E-1,8.1547046E-1,-3.5059583E-1,-6.14565E-1,3.92094E-1,2.862986E-1,-2.521238E-1,-4.6551195E-1,8.837975E-2,-1.9733988E-2,-3.732765E-1,-3.9669484E-1,1.9051282E-1],"categories":[],"categories_nodes":[],"categories_segments":[],"categories_sizes":[],"default_left":[0,0,0,0,0,0,0,0,0,0,0,0,0,0,0],"id":1,"left_children":[1,3,5,7,9,11,13,-1,-1,-1,-1,-1,-1,-1,-1],"loss_changes":[1.434456E1,1.2372221E1,1.2745935E1,7.4577694E0,1.0986742E1,1.4324214E1,8.424015E0,0E0,0E0,0E0,0E0,0E0,0E0,0E0,0E0],"parents":[2147483647,0,0,1,1,2,2,3,3,4,4,5,5,6,6],"right_children":[2,4,6,8,10,12,14,-1,-1,-1,-1,-1,-1,-1,-1],"split_conditions":[2.2114798E-2,4.7877498E-2,6.1680075E-2,8.389859E-2,2.020852E-2,3.2467104E-2,5.999434E-3,2.862986E-1,-2.521238E-1,-4.6551195E-1,8.837975E-2,-1.9733988E-2,-3.732765E-1,-3.9669484E-1,1.9051282E-1],"split_indices":[14,361,20,213,179,77,233,0,0,0,0,0,0,0,0],"split_type":[0,0,0,0,0,0,0,0,0,0,0,0,0,0,0],"sum_hessian":[9.8431366E1,4.0533897E1,5.789747E1,2.7946432E1,1.2587462E1,4.06885E1,1.7208973E1,2.6175125E1,1.7713072E0,3.907726E0,8.679737E0,2.2331068E1,1.835743E1,1.5845492E0,1.5624423E1],"tree_param":{"num_deleted":"0","num_feature":"387","num_nodes":"15","size_leaf_vector":"1"}},{"base_weights":[2.5356668E-3,3.0482593E-1,-4.152054E-1,8.669636E-1,-7.866344E-2,-8.003302E-1,3.717918E-1,3.0819577E-1,-1.6248927E-1,-3.5913858E-1,5.2054398E-2,2.7976912E-2,-3.7391368E-1,3.147617E-1,-1.4742817E-1],"categories":[],"categories_nodes":[],"categories_segments":[],"categories_sizes":[],"default_left":[0,0,0,0,0,0,0,0,0,0,0,0,0,0,0],"id":2,"left_children":[1,3,5,7,9,11,13,-1,-1,-1,-1,-1,-1,-1,-1],"loss_changes":[1.2411102E1,1.235939E1,1.2804567E1,5.7979927E0,1.0026147E1,1.1285944E1,8.843229E0,0E0,0E0,0E0,0E0,0E0,0E0,0E0,0E0],"parents":[2147483647,0,0,1,1,2,2,3,3,4,4,5,5,6,6],"right_children":[2,4,6,8,10,12,14,-1,-1,-1,-1,-1,-1,-1,-1],"split_conditions":[3.7390716E-2,2.45483E-2,6.0456887E-2,6.0916938E-2,6.791642E-3,2.16352E-2,4.564817E-2,3.0819577E-1,-1.6248927E-1,-3.5913858E-1,5.2054398E-2,2.7976912E-2,-3.7391368E-1,3.147617E-1,-1.4742817E-1],"split_indices":[138,364,245,182,301,64,303,0,0,0,0,0,0,0,0],"split_type":[0,0,0,0,0,0,0,0,0,0,0,0,0,0,0],"sum_hessian":[9.628087E1,5.6016155E1,4.0264717E1,2.2205505E1,3.381065E1,2.7023539E1,1.3241177E1,2.0178991E1,2.0265155E0,5.5312386E0,2.8279411E1,9.261183E0,1.7762356E1,7.2983313E0,5.9428453E0],"tree_param":{"num_deleted":"0","num_feature":"387","num_nodes":"15","size_leaf_vector":"1"}},{"base_weights":[7.898866E-3,3.013133E-1,-3.4561113E-1,-1.0543431E0,5.084132E-1,-7.639808E-1,1.9461115E-1,2.1050346E-1,-4.4200844E-1,2.4027868E-1,-4.8803963E-2,-3.5190347E-1,1.5513047E-2,1.836502E-1,-2.6726314E-1],"categories":[],"categories_nodes":[],"categories_segments":[],"categories_sizes":[],"default_left":[0,0,0,0,0,0,0,0,0,0,0,0,0,0,0],"id":3,"left_children":[1,3,5,7,9,11,13,-1,-1,-1,-1,-1,-1,-1,-1],"loss_changes":[9.982079E0,1.5296391E1,1.0016062E1,6.3996754E0,9.215503E0,8.33738E0,9.543058E0,0E0,0E0,0E0,0E0,0E0,0E0,0E0,0E0],"parents":[2147483647,0,0,1,1,2,2,3,3,4,4,5,5,6,6],"right_children":[2,4,6,8,10,12,14,-1,-1,-1,-1,-1,-1,-1,-1],"split_conditions":[3.2578606E-2,3.9972216E-3,3.264016E-2,2.0141657E-2,4.074353E-2,4.389968E-2,5.1417373E-2,2.1050346E-1,-4.4200844E-1,2.4027868E-1,-4.8803963E-2,-3.5190347E-1,1.5513047E-2,1.836502E-1,-2.6726314E-1],"split_indices":[282,155,59,278,264,374,68,0,0,0,0,0,0,0,0],"split_type":[0,0,0,0,0,0,0,0,0,0,0,0,0,0,0],"sum_hessian":[9.423207E1,5.157353E1,4.2658546E1,6.29249E0,4.528104E1,2.3807144E1,1.88514E1,1.0822829E0,5.210207E0,3.1400665E1,1.3880374E1,1.5564313E1,8.242832E0,1.3929259E1,4.922142E0],"tree_param":{"num_deleted":"0","num_feature":"387","num_nodes":"15","size_leaf_vector":"1"}},{"base_weights":[8.875687E-3,1.9553226E-1,-5.266735E-1,-1.6826914E-1,6.142847E-1,-7.934706E-1,5.5973756E-1,4.5158863E-2,-3.3070683E-1,-3.215556E-1,2.368882E-1,-2.650444E-2,-3.9238182E-1,-1.3952103E-1,3.1999305E-1],"categories":[],"categories_nodes":[],"categories_segments":[],"categories_sizes":[],"default_left":[0,0,0,0,0,0,0,0,0,0,0,0,0,0,0],"id":4,"left_children":[1,3,5,7,9,11,13,-1,-1,-1,-1,-1,-1,-1,-1],"loss_changes":[9.395328E0,1.0715758E1,7.486317E0,1.1500089E1,1.0484564E1,7.1104517E0,3.2890573E0,0E0,0E0,0E0,0E0,0E0,0E0,0E0,0E0],"parents":[2147483647,0,0,1,1,2,2,3,3,4,4,5,5,6,6],"right_children":[2,4,6,8,10,12,14,-1,-1,-1,-1,-1,-1,-1,-1],"split_conditions":[4.9722224E-2,3.3786163E-2,6.5809876E-2,5.2326526E-2,4.9955957E-3,3.5517946E-2,2.24192E-2,4.5158863E-2,-3.3070683E-1,-3.215556E-1,2.368882E-1,-2.650444E-2,-3.9238182E-1,-1.3952103E-1,3.1999305E-1],"split_indices":[243,156,142,289,342,349,210,0,0,0,0,0,0,0,0],"split_type":[0,0,0,0,0,0,0,0,0,0,0,0,0,0,0],"sum_hessian":[9.195714E1,6.86613E1,2.3295837E1,3.706144E1,3.1599863E1,1.8919333E1,4.376506E0,2.82565E1,8.804938E0,2.4949474E0,2.9104916E1,8.475152E0,1.04441805E1,1.4756758E0,2.9008298E0],"tree_param":{"num_deleted":"0","num_feature":"387","num_nodes":"15","size_leaf_vector":"1"}},{"base_weights":[4.8819273E-3,2.0980152E-1,-4.833598E-1,-4.760691E-2,8.070945E-1,7.084883E-2,-1.1067472E0,-3.009536E-1,4.6711743E-2,-7.99016E-2,3.3606088E-1,3.0025363E-1,-1.4258564E-1,-3.9983124E-1,2.2690217E-1],"categories":[],"categories_nodes":[],"categories_segments":[],"categories_sizes":[],"default_left":[0,0,0,0,0,0,0,0,0,0,0,0,0,0,0],"id":5,"left_children":[1,3,5,7,9,11,13,-1,-1,-1,-1,-1,-1,-1,-1],"loss_changes":[9.082513E0,9.866884E0,9.351341E0,9.018788E0,6.7878056E0,8.169559E0,6.352604E0,0E0,0E0,0E0,0E0,0E0,0E0,0E0,0E0],"parents":[2147483647,0,0,1,1,2,2,3,3,4,4,5,5,6,6],"right_children":[2,4,6,8,10,12,14,-1,-1,-1,-1,-1,-1,-1,-1],"split_conditions":[2.6327896E-33,6.0851306E-2,3.8884997E-2,6.9867484E-3,1.8269785E-2,2.1185E-2,8.709885E-2,-3.009536E-1,4.6711743E-2,-7.99016E-2,3.3606088E-1,3.0025363E-1,-1.4258564E-1,-3.9983124E-1,2.2690217E-1],"split_indices":[127,245,172,173,82,243,322,0,0,0,0,0,0,0,0],"split_type":[0,0,0,0,0,0,0,0,0,0,0,0,0,0,0],"sum_hessian":[8.876588E1,6.2925674E1,2.5840199E1,4.461763E1,1.8308046E1,1.4148309E1,1.169189E1,7.137438E0,3.748019E1,4.1680493E0,1.41399975E1,4.926504E0,9.221805E0,1.06807785E1,1.0111116E0],"tree_param":{"num_deleted":"0","num_feature":"387","num_nodes":"15","size_leaf_vector":"1"}},{"base_weights":[1.0255845E-2,-9.548683E-2,7.4323094E-1,2.5771102E-1,-4.3463057E-1,-3.895404E-1,1.0685973E0,1.6419032E-1,-1.7638947E-1,-4.821417E-1,-7.439201E-2,1.0626883E-1,-2.8043404E-1,4.914635E-2,3.4989613E-1],"categories":[],"categories_nodes":[],"categories_segments":[],"categories_sizes":[],"default_left":[0,0,0,0,0,0,0,0,0,0,0,0,0,0,0],"id":6,"left_children":[1,3,5,7,9,11,13,-1,-1,-1,-1,-1,-1,-1,-1],"loss_changes":[6.816372E0,9.328687E0,4.5022845E0,9.7059965E0,8.273685E0,1.6315179E0,5.940504E-1,0E0,0E0,0E0,0E0,0E0,0E0,0E0,0E0],"parents":[2147483647,0,0,1,1,2,2,3,3,4,4,5,5,6,6],"right_children":[2,4,6,8,10,12,14,-1,-1,-1,-1,-1,-1,-1,-1],"split_conditions":[7.531036E-1,4.347826E-2,3.9420854E-3,6.548192E-2,5.546661E-3,2.2120163E-2,4.5357076E-3,1.6419032E-1,-1.7638947E-1,-4.821417E-1,-7.439201E-2,1.0626883E-1,-2.8043404E-1,4.914635E-2,3.4989613E-1],"split_indices":[384,385,362,340,13,40,37,0,0,0,0,0,0,0,0],"split_type":[0,0,0,0,0,0,0,0,0,0,0,0,0,0,0],"sum_hessian":[8.6029884E1,7.59436E1,1.0086279E1,3.731862E1,3.8624985E1,2.2066243E0,7.8796554E0,2.8062E1,9.2566185E0,4.2593412E0,3.4365646E1,1.0815663E0,1.1250578E0,1.028998E0,6.850657E0],"tree_param":{"num_deleted":"0","num_feature":"387","num_nodes":"15","size_leaf_vector":"1"}},{"base_weights":[8.201859E-3,2.15452E-1,-3.2690048E-1,-9.75749E-1,3.4373268E-1,-8.185171E-1,1.5304275E-1,6.6186205E-2,-4.1180915E-1,1.4197832E-1,-2.2813325E-1,-3.649934E-2,-4.317012E-1,2.2717793E-1,-1.0788343E-1],"categories":[],"categories_nodes":[],"categories_segments":[],"categories_sizes":[],"default_left":[0,0,0,0,0,0,0,0,0,0,0,0,0,0,0],"id":7,"left_children":[1,3,5,7,9,11,13,-1,-1,-1,-1,-1,-1,-1,-1],"loss_changes":[5.978915E0,8.459912E0,7.8896704E0,2.8813138E0,7.330586E0,6.9219046E0,5.6910987E0,0E0,0E0,0E0,0E0,0E0,0E0,0E0,0E0],"parents":[2147483647,0,0,1,1,2,2,3,3,4,4,5,5,6,6],"right_children":[2,4,6,8,10,12,14,-1,-1,-1,-1,-1,-1,-1,-1],"split_conditions":[3.8551293E-2,4.239276E-3,2.4404207E-2,2.521325E-2,7.115391E-2,3.0186664E-2,4.1098535E-2,6.6186205E-2,-4.1180915E-1,1.4197832E-1,-2.2813325E-1,-3.649934E-2,-4.317012E-1,2.2717793E-1,-1.0788343E-1],"split_indices":[171,367,176,358,264,198,141,0,0,0,0,0,0,0,0],"split_type":[0,0,0,0,0,0,0,0,0,0,0,0,0,0,0],"sum_hessian":[8.407535E1,5.21681E1,3.1907251E1,4.4295354E0,4.7738564E1,1.5413457E1,1.6493793E1,1.2142105E0,3.2153249E0,4.3237823E1,4.5007367E0,7.823343E0,7.590114E0,7.3517942E0,9.142E0],"tree_param":{"num_deleted":"0","num_feature":"387","num_nodes":"15","size_leaf_vector":"1"}},{"base_weights":[-1.0134636E-3,1.0007007E-1,-6.7042935E-1,-4.232846E-1,2.4779657E-1,-1.1192908E0,4.4221753E-1,1.03294775E-2,-4.3013933E-1,2.428606E-1,1.5183673E-2,2.1418544E-2,-4.3792114E-1,-1.172199E-1,2.6852223E-1],"categories":[],"categories_nodes":[],"categories_segments":[],"categories_sizes":[],"default_left":[0,0,0,0,0,0,0,0,0,0,0,0,0,0,0],"id":8,"left_children":[1,3,5,7,9,11,13,-1,-1,-1,-1,-1,-1,-1,-1],"loss_changes":[5.6262565E0,5.690539E0,5.9426675E0,7.576142E0,6.269791E0,3.3696804E0,1.8028624E0,0E0,0E0,0E0,0E0,0E0,0E0,0E0,0E0],"parents":[2147483647,0,0,1,1,2,2,3,3,4,4,5,5,6,6],"right_children":[2,4,6,8,10,12,14,-1,-1,-1,-1,-1,-1,-1,-1],"split_conditions":[8.602075E-2,1.201554E-2,5.9274748E-2,4.9702857E-2,1.7516728E-2,1.4799619E-2,1.730201E-2,1.03294775E-2,-4.3013933E-1,2.428606E-1,1.5183673E-2,2.1418544E-2,-4.3792114E-1,-1.172199E-1,2.6852223E-1],"split_indices":[232,61,181,334,325,198,185,0,0,0,0,0,0,0,0],"split_type":[0,0,0,0,0,0,0,0,0,0,0,0,0,0,0],"sum_hessian":[8.1154854E1,7.12469E1,9.907955E0,1.5273111E1,5.597379E1,7.0556216E0,2.8523338E0,1.1176566E1,4.0965457E0,1.373631E1,4.223748E1,1.7445331E0,5.3110886E0,1.0528963E0,1.7994375E0],"tree_param":{"num_deleted":"0","num_feature":"387","num_nodes":"15","size_leaf_vector":"1"}},{"base_weights":[-4.9981787E-3,5.291336E-1,-1.3039805E-1,8.082664E-1,-5.968521E-1,1.5612017E-1,-5.195359E-1,-3.9257757E-2,3.3416024E-1,-3.2793608E-1,1.0510185E-1,1.2927893E-1,-1.1008638E-1,9.3952544E-2,-2.3634952E-1],"categories":[],"categories_nodes":[],"categories_segments":[],"categories_sizes":[],"default_left":[0,0,0,0,0,0,0,0,0,0,0,0,0,0,0],"id":9,"left_children":[1,3,5,7,9,11,13,-1,-1,-1,-1,-1,-1,-1,-1],"loss_changes":[5.399601E0,5.300494E0,7.356762E0,3.79323E0,2.0848262E0,5.6710987E0,6.480667E0,0E0,0E0,0E0,0E0,0E0,0E0,0E0,0E0],"parents":[2147483647,0,0,1,1,2,2,3,3,4,4,5,5,6,6],"right_children":[2,4,6,8,10,12,14,-1,-1,-1,-1,-1,-1,-1,-1],"split_conditions":[1.05772605E-2,6.228303E-2,3.753216E-2,1.0550115E-2,3.4125954E-2,4.6653137E-2,1.7016921E-2,-3.9257757E-2,3.3416024E-1,-3.2793608E-1,1.0510185E-1,1.2927893E-1,-1.1008638E-1,9.3952544E-2,-2.3634952E-1],"split_indices":[261,226,190,366,9,138,219,0,0,0,0,0,0,0,0],"split_type":[0,0,0,0,0,0,0,0,0,0,0,0,0,0,0],"sum_hessian":[7.858494E1,1.4329573E1,6.425536E1,1.1709058E1,2.620515E0,3.7352158E1,2.6903208E1,3.0151534E0,8.693904E0,1.6184735E0,1.0020417E0,2.460271E1,1.2749449E1,6.515072E0,2.0388134E1],"tree_param":{"num_deleted":"0","num_feature":"387","num_nodes":"15","size_leaf_vector":"1"}},{"base_weights":[2.2891756E-4,2.5887686E-1,-2.4540992E-1,-9.406839E-1,3.8209143E-1,2.709269E-1,-5.998473E-1,-5.1893108E-2,-3.4692568E-1,-1.2681045E-1,1.7604089E-1,-6.390298E-2,2.532065E-1,-2.6389542E-1,5.9957687E-2],"categories":[],"categories_nodes":[],"categories_segments":[],"categories_sizes":[],"default_left":[0,0,0,0,0,0,0,0,0,0,0,0,0,0,0],"id":10,"left_children":[1,3,5,7,9,11,13,-1,-1,-1,-1,-1,-1,-1,-1],"loss_changes":[4.9411745E0,5.9585876E0,7.4626913E0,4.3223476E-1,6.0250053E0,4.873917E0,5.5380707E0,0E0,0E0,0E0,0E0,0E0,0E0,0E0,0E0],"parents":[2147483647,0,0,1,1,2,2,3,3,4,4,5,5,6,6],"right_children":[2,4,6,8,10,12,14,-1,-1,-1,-1,-1,-1,-1,-1],"split_conditions":[3.775214E-2,4.2276382E-3,2.7428195E-2,2.5302019E-2,7.7375546E-3,3.7536863E-2,6.0851306E-2,-5.1893108E-2,-3.4692568E-1,-1.2681045E-1,1.7604089E-1,-6.390298E-2,2.532065E-1,-2.6389542E-1,5.9957687E-2],"split_indices":[346,146,241,37,57,70,245,0,0,0,0,0,0,0,0],"split_type":[0,0,0,0,0,0,0,0,0,0,0,0,0,0,0],"sum_hessian":[7.5772194E1,3.68825E1,3.8889698E1,2.8175552E0,3.4064945E1,1.5925453E1,2.2964245E1,1.0133365E0,1.8042188E0,6.691893E0,2.737305E1,8.9750185E0,6.9504347E0,1.6937963E1,6.026283E0],"tree_param":{"num_deleted":"0","num_feature":"387","num_nodes":"15","size_leaf_vector":"1"}},{"base_weights":[-1.0478564E-3,-3.2788998E-1,5.278777E-2,8.84249E-1,-2.9995942E-2,9.833738E-4,3.1446287E-1,1.330958E-1,-6.583891E-2],"categories":[],"categories_nodes":[],"categories_segments":[],"categories_sizes":[],"default_left":[0,0,0,0,0,0,0,0,0],"id":11,"left_children":[1,-1,3,5,7,-1,-1,-1,-1],"loss_changes":[4.4073634E0,0E0,4.945982E0,9.3609285E-1,6.017267E0,0E0,0E0,0E0,0E0],"parents":[2147483647,0,0,2,2,3,3,4,4],"right_children":[2,-1,4,6,8,-1,-1,-1,-1],"split_conditions":[2.1886565E-3,-3.2788998E-1,5.225433E-3,6.603375E-3,1.939789E-2,9.833738E-4,3.1446287E-1,1.330958E-1,-6.583891E-2],"split_indices":[50,0,165,325,102,0,0,0,0],"split_type":[0,0,0,0,0,0,0,0,0],"sum_hessian":[7.299392E1,2.522829E0,7.047109E1,5.5044255E0,6.496667E1,1.023748E0,4.480677E0,1.817912E1,4.6787544E1],"tree_param":{"num_deleted":"0","num_feature":"387","num_nodes":"9","size_leaf_vector":"1"}},{"base_weights":[2.555682E-3,1.6974895E-1,-3.4873626E-1,-2.2933713E-1,4.511016E-1,2.169485E-1,-7.550153E-1,-1.5030353E-1,1.5823707E-1,1.8583438E-1,-1.03825994E-1,-8.6730346E-2,2.4381813E-1,-1.6522313E-2,-3.4633183E-1],"categories":[],"categories_nodes":[],"categories_segments":[],"categories_sizes":[],"default_left":[0,0,0,0,0,0,0,0,0,0,0,0,0,0,0],"id":12,"left_children":[1,3,5,7,9,11,13,-1,-1,-1,-1,-1,-1,-1,-1],"loss_changes":[4.328447E0,5.7088346E0,5.62603E0,4.6445756E0,4.1890454E0,3.4643426E0,3.8659735E0,0E0,0E0,0E0,0E0,0E0,0E0,0E0,0E0],"parents":[2147483647,0,0,1,1,2,2,3,3,4,4,5,5,6,6],"right_children":[2,4,6,8,10,12,14,-1,-1,-1,-1,-1,-1,-1,-1],"split_conditions":[4.2189777E-2,2.1171596E-2,2.6076261E-2,6.0456887E-2,6.540769E-2,2.7904835E-2,2.9248245E-2,-1.5030353E-1,1.5823707E-1,1.8583438E-1,-1.03825994E-1,-8.6730346E-2,2.4381813E-1,-1.6522313E-2,-3.4633183E-1],"split_indices":[111,242,168,245,68,150,262,0,0,0,0,0,0,0,0],"split_type":[0,0,0,0,0,0,0,0,0,0,0,0,0,0,0],"sum_hessian":[7.168831E1,4.892149E1,2.2766823E1,2.030485E1,2.861664E1,9.711281E0,1.3055541E1,1.5189935E1,5.1149154E0,2.3811255E1,4.805384E0,5.529402E0,4.1818795E0,5.1567917E0,7.898749E0],"tree_param":{"num_deleted":"0","num_feature":"387","num_nodes":"15","size_leaf_vector":"1"}},{"base_weights":[2.332915E-3,1.0554796E-1,-5.2701074E-1,-1.986896E-1,4.0794772E-1,-8.2394356E-1,3.72116E-1,-2.3585108E-1,2.8408812E-2,-1.0411664E-1,1.7507306E-1,-3.206423E-1,7.890182E-2,2.2382899E-1,-8.647026E-2],"categories":[],"categories_nodes":[],"categories_segments":[],"categories_sizes":[],"default_left":[0,0,0,0,0,0,0,0,0,0,0,0,0,0,0],"id":13,"left_children":[1,3,5,7,9,11,13,-1,-1,-1,-1,-1,-1,-1,-1],"loss_changes":[3.8683727E0,5.5303545E0,3.391186E0,5.2793384E0,4.1848674E0,2.6755476E0,1.0935229E0,0E0,0E0,0E0,0E0,0E0,0E0,0E0,0E0],"parents":[2147483647,0,0,1,1,2,2,3,3,4,4,5,5,6,6],"right_children":[2,4,6,8,10,12,14,-1,-1,-1,-1,-1,-1,-1,-1],"split_conditions":[6.807701E-2,3.6408395E-2,3.6421217E-2,1.7448872E-2,8.170452E-3,5.6400668E-2,4.6213888E-2,-2.3585108E-1,2.8408812E-2,-1.0411664E-1,1.7507306E-1,-3.206423E-1,7.890182E-2,2.2382899E-1,-8.647026E-2],"split_indices":[204,149,338,3,225,233,362,0,0,0,0,0,0,0,0],"split_type":[0,0,0,0,0,0,0,0,0,0,0,0,0,0,0],"sum_hessian":[6.878424E1,5.823064E1,1.0553602E1,2.9198076E1,2.9032564E1,7.9964323E0,2.5571704E0,9.165422E0,2.0032654E1,5.294827E0,2.3737738E1,6.5398498E0,1.4565824E0,1.5496798E0,1.0074905E0],"tree_param":{"num_deleted":"0","num_feature":"387","num_nodes":"15","size_leaf_vector":"1"}},{"base_weights":[-6.762056E-4,5.201747E-1,-9.749294E-2,9.1227055E-1,-1.4773451E-1,-2.015109E-1,5.2590644E-1,3.027543E-1,5.4887425E-2,-1.7783248E-1,1.4656362E-1,5.706798E-2,-1.22974865E-1,2.523187E-1,-1.3372602E-1],"categories":[],"categories_nodes":[],"categories_segments":[],"categories_sizes":[],"default_left":[0,0,0,0,0,0,0,0,0,0,0,0,0,0,0],"id":14,"left_children":[1,3,5,7,9,11,13,-1,-1,-1,-1,-1,-1,-1,-1],"loss_changes":[3.4462357E0,2.9401736E0,3.84252E0,3.02279E-1,1.6553642E0,4.168643E0,2.9829836E0,0E0,0E0,0E0,0E0,0E0,0E0,0E0,0E0],"parents":[2147483647,0,0,1,1,2,2,3,3,4,4,5,5,6,6],"right_children":[2,4,6,8,10,12,14,-1,-1,-1,-1,-1,-1,-1,-1],"split_conditions":[1.0147787E-2,4.2554457E-2,6.603201E-2,5.5975392E-2,2.08348E-2,1.9163324E-2,5.754965E-2,3.027543E-1,5.4887425E-2,-1.7783248E-1,1.4656362E-1,5.706798E-2,-1.22974865E-1,2.523187E-1,-1.3372602E-1],"split_indices":[123,321,33,350,301,51,131,0,0,0,0,0,0,0,0],"split_type":[0,0,0,0,0,0,0,0,0,0,0,0,0,0,0],"sum_hessian":[6.633529E1,9.712357E0,5.6622936E1,5.8892274E0,3.823129E0,4.910605E1,7.5168867E0,4.8597274E0,1.0294999E0,2.289872E0,1.533257E0,1.7082834E1,3.2023216E1,5.7774043E0,1.7394824E0],"tree_param":{"num_deleted":"0","num_feature":"387","num_nodes":"15","size_leaf_vector":"1"}},{"base_weights":[9.148746E-3,5.22374E-1,-8.62167E-2,7.545767E-1,-1.2511216E-1,2.0841746E-1,-3.3929873E-1,-9.799219E-2,2.83305E-1,1.0525688E-1,-2.3195828E-1,-1.512347E-1,9.391734E-2],"categories":[],"categories_nodes":[],"categories_segments":[],"categories_sizes":[],"default_left":[0,0,0,0,0,0,0,0,0,0,0,0,0],"id":15,"left_children":[1,3,5,7,-1,9,11,-1,-1,-1,-1,-1,-1],"loss_changes":[3.2446856E0,2.5801592E0,4.245556E0,2.0901494E0,0E0,3.975067E0,3.4369762E0,0E0,0E0,0E0,0E0,0E0,0E0],"parents":[2147483647,0,0,1,1,2,2,3,3,5,5,6,6],"right_children":[2,4,6,8,-1,10,12,-1,-1,-1,-1,-1,-1],"split_conditions":[8.554141E-3,4.9355835E-2,4.5454547E-2,7.718809E-3,-1.2511216E-1,9.352516E-2,6.848802E-2,-9.799219E-2,2.83305E-1,1.0525688E-1,-2.3195828E-1,-1.512347E-1,9.391734E-2],"split_indices":[276,290,385,323,0,311,181,0,0,0,0,0,0],"split_type":[0,0,0,0,0,0,0,0,0,0,0,0,0],"sum_hessian":[6.437372E1,9.385652E0,5.4988064E1,7.683273E0,1.7023784E0,2.5489761E1,2.9498302E1,1.0395136E0,6.6437593E0,2.2820864E1,2.668897E0,2.3730154E1,5.76815E0],"tree_param":{"num_deleted":"0","num_feature":"387","num_nodes":"13","size_leaf_vector":"1"}},{"base_weights":[7.4240267E-3,2.684104E-1,-1.7623541E-1,4.916022E-1,-4.3558156E-1,-3.1261593E-1,4.4529575E-1,-1.7414518E-1,1.8303446E-1,5.128593E-2,-2.8250694E-1,1.944486E-1,-1.2655391E-1,-1.13714226E-1,2.1648344E-1],"categories":[],"categories_nodes":[],"categories_segments":[],"categories_sizes":[],"default_left":[0,0,0,0,0,0,0,0,0,0,0,0,0,0,0],"id":16,"left_children":[1,3,5,7,9,11,13,-1,-1,-1,-1,-1,-1,-1,-1],"loss_changes":[3.0856953E0,4.3903465E0,3.3441563E0,2.977941E0,2.287775E0,3.589078E0,1.9171973E0,0E0,0E0,0E0,0E0,0E0,0E0,0E0,0E0],"parents":[2147483647,0,0,1,1,2,2,3,3,4,4,5,5,6,6],"right_children":[2,4,6,8,10,12,14,-1,-1,-1,-1,-1,-1,-1,-1],"split_conditions":[2.3054052E-2,5.3371962E-2,7.04997E-2,5.005814E-3,3.1375613E-2,6.4322185E-3,1.443965E-2,-1.7414518E-1,1.8303446E-1,5.128593E-2,-2.8250694E-1,1.944486E-1,-1.2655391E-1,-1.13714226E-1,2.1648344E-1],"split_indices":[273,343,309,107,229,165,177,0,0,0,0,0,0,0,0],"split_type":[0,0,0,0,0,0,0,0,0,0,0,0,0,0,0],"sum_hessian":[6.2388824E1,2.5578886E1,3.6809937E1,1.9650602E1,5.928283E0,3.0593851E1,6.216085E0,1.568013E0,1.808259E1,2.9978244E0,2.9304585E0,2.6194625E0,2.797439E1,1.4671851E0,4.7489E0],"tree_param":{"num_deleted":"0","num_feature":"387","num_nodes":"15","size_leaf_vector":"1"}},{"base_weights":[7.2908234E-3,2.3374183E-1,-1.8585514E-1,3.489001E-1,-6.162545E-1,1.8348074E-1,-4.684182E-1,-6.820678E-2,1.6794556E-1,1.8466074E-2,-2.6862395E-1,-6.510687E-2,2.1448614E-1,7.590624E-2,-2.0466365E-1],"categories":[],"categories_nodes":[],"categories_segments":[],"categories_sizes":[],"default_left":[0,0,0,0,0,0,0,0,0,0,0,0,0,0,0],"id":17,"left_children":[1,3,5,7,9,11,13,-1,-1,-1,-1,-1,-1,-1,-1],"loss_changes":[2.7100523E0,3.005409E0,3.577909E0,3.2563179E0,7.6710784E-1,3.3952427E0,3.1399674E0,0E0,0E0,0E0,0E0,0E0,0E0,0E0,0E0],"parents":[2147483647,0,0,1,1,2,2,3,3,4,4,5,5,6,6],"right_children":[2,4,6,8,10,12,14,-1,-1,-1,-1,-1,-1,-1,-1],"split_conditions":[2.7607422E-2,7.5828336E-2,2.817029E-2,1.06130615E-2,4.4532724E-2,4.0825516E-2,1.3602555E-2,-6.820678E-2,1.6794556E-1,1.8466074E-2,-2.6862395E-1,-6.510687E-2,2.1448614E-1,7.590624E-2,-2.0466365E-1],"split_indices":[248,370,5,183,102,134,181,0,0,0,0,0,0,0,0],"split_type":[0,0,0,0,0,0,0,0,0,0,0,0,0,0,0],"sum_hessian":[5.9967674E1,2.7507153E1,3.246052E1,2.4744299E1,2.762853E0,1.4221877E1,1.8238644E1,6.6091967E0,1.8135103E1,1.0333477E0,1.7295052E0,8.447631E0,5.7742467E0,4.127404E0,1.4111239E1],"tree_param":{"num_deleted":"0","num_feature":"387","num_nodes":"15","size_leaf_vector":"1"}},{"base_weights":[4.882213E-3,-4.1161847E-1,1.1263123E-1,-6.036877E-1,1.5702188E-1,-5.441491E-1,2.046462E-1,1.104148E-1,-2.4362709E-1,1.275001E-1,-2.5813714E-1,-2.0692739E-1,8.3272606E-2],"categories":[],"categories_nodes":[],"categories_segments":[],"categories_sizes":[],"default_left":[0,0,0,0,0,0,0,0,0,0,0,0,0],"id":18,"left_children":[1,3,5,7,-1,9,11,-1,-1,-1,-1,-1,-1],"loss_changes":[2.6856036E0,2.5252893E0,2.9824288E0,2.4597015E0,0E0,2.239098E0,2.956911E0,0E0,0E0,0E0,0E0,0E0,0E0],"parents":[2147483647,0,0,1,1,2,2,3,3,5,5,6,6],"right_children":[2,4,6,8,-1,10,12,-1,-1,-1,-1,-1,-1],"split_conditions":[9.7774975E-3,6.4816736E-2,5.094208E-3,1.2664676E-2,1.5702188E-1,1.9216321E-2,1.6979128E-3,1.104148E-1,-2.4362709E-1,1.275001E-1,-2.5813714E-1,-2.0692739E-1,8.3272606E-2],"split_indices":[301,142,152,159,0,292,177,0,0,0,0,0,0],"split_type":[0,0,0,0,0,0,0,0,0,0,0,0,0],"sum_hessian":[5.780988E1,1.1302034E1,4.6507847E1,9.670018E0,1.6320161E0,5.111255E0,4.139659E1,1.5723649E0,8.097653E0,1.1731534E0,3.9381015E0,2.4833114E0,3.8913277E1],"tree_param":{"num_deleted":"0","num_feature":"387","num_nodes":"13","size_leaf_vector":"1"}},{"base_weights":[-1.0204925E-3,-9.388142E-2,4.5161003E-1,6.916473E-2,-4.2085716E-1,7.4524295E-1,-1.5500134E-1,1.5364845E-1,-5.6743637E-2,1.1101045E-1,-1.6814822E-1,-7.5582385E-2,2.8674805E-1],"categories":[],"categories_nodes":[],"categories_segments":[],"categories_sizes":[],"default_left":[0,0,0,0,0,0,0,0,0,0,0,0,0],"id":19,"left_children":[1,3,5,7,9,11,-1,-1,-1,-1,-1,-1,-1],"loss_changes":[2.4356637E0,2.5920594E0,3.1898906E0,3.865915E0,1.9895434E0,1.9163413E0,0E0,0E0,0E0,0E0,0E0,0E0,0E0],"parents":[2147483647,0,0,1,1,2,2,3,3,4,4,5,5],"right_children":[2,4,6,8,10,12,-1,-1,-1,-1,-1,-1,-1],"split_conditions":[7.891294E-2,4.2217657E-2,5.751791E-2,2.21906E-2,8.525725E-3,2.814591E-3,-1.5500134E-1,1.5364845E-1,-5.6743637E-2,1.1101045E-1,-1.6814822E-1,-7.5582385E-2,2.8674805E-1],"split_indices":[257,289,344,154,380,219,0,0,0,0,0,0,0],"split_type":[0,0,0,0,0,0,0,0,0,0,0,0,0],"sum_hessian":[5.5939564E1,4.7074436E1,8.865126E0,3.1937368E1,1.5137069E1,6.9790587E0,1.8860673E0,1.1401422E1,2.0535946E1,2.0238984E0,1.311317E1,1.1826103E0,5.796448E0],"tree_param":{"num_deleted":"0","num_feature":"387","num_nodes":"13","size_leaf_vector":"1"}},{"base_weights":[4.5124944E-3,8.138569E-2,-5.003479E-1,3.3887562E-1,-1.4724763E-1,-8.178138E-1,8.513858E-2,-5.7628425E-4,2.044254E-1,3.1966902E-2,-1.8371333E-1,-1.881965E-2,-2.9782853E-1],"categories":[],"categories_nodes":[],"categories_segments":[],"categories_sizes":[],"default_left":[0,0,0,0,0,0,0,0,0,0,0,0,0],"id":20,"left_children":[1,3,5,7,9,11,-1,-1,-1,-1,-1,-1,-1],"loss_changes":[2.1721E0,2.906363E0,2.0735002E0,2.7006521E0,3.181548E0,6.6730285E-1,0E0,0E0,0E0,0E0,0E0,0E0,0E0],"parents":[2147483647,0,0,1,1,2,2,3,3,4,4,5,5],"right_children":[2,4,6,8,10,12,-1,-1,-1,-1,-1,-1,-1],"split_conditions":[8.717892E-2,3.4282766E-2,4.83572E-2,2.8649684E-2,5.4157596E-2,2.9732905E-2,8.513858E-2,-5.7628425E-4,2.044254E-1,3.1966902E-2,-1.8371333E-1,-1.881965E-2,-2.9782853E-1],"split_indices":[119,160,245,93,239,274,0,0,0,0,0,0,0],"split_type":[0,0,0,0,0,0,0,0,0,0,0,0,0],"sum_hessian":[5.3917957E1,4.752092E1,6.397036E0,2.2123243E1,2.5397678E1,4.522949E0,1.8740871E0,1.1588347E1,1.0534897E1,1.6930342E1,8.467337E0,1.1063739E0,3.4165752E0],"tree_param":{"num_deleted":"0","num_feature":"387","num_nodes":"13","size_leaf_vector":"1"}},{"base_weights":[4.0286678E-4,1.807009E-1,-2.0124009E-1,-5.638521E-1,3.2333103E-1,-4.4385335E-1,1.5348282E-1,3.8873825E-2,-2.8348392E-1,1.5190852E-1,-7.7608414E-2,1.9318376E-1,-1.8869585E-1,1.8093419E-1,-9.3763016E-2],"categories":[],"categories_nodes":[],"categories_segments":[],"categories_sizes":[],"default_left":[0,0,0,0,0,0,0,0,0,0,0,0,0,0,0],"id":21,"left_children":[1,3,5,7,9,11,13,-1,-1,-1,-1,-1,-1,-1,-1],"loss_changes":[1.9670668E0,3.2156487E0,2.266285E0,1.4322784E0,2.7523534E0,3.511406E0,2.5179923E0,0E0,0E0,0E0,0E0,0E0,0E0,0E0,0E0],"parents":[2147483647,0,0,1,1,2,2,3,3,4,4,5,5,6,6],"right_children":[2,4,6,8,10,12,14,-1,-1,-1,-1,-1,-1,-1,-1],"split_conditions":[3.2578606E-2,3.6735274E-3,3.8292453E-2,2.3015559E-2,5.8197267E-2,8.481316E-3,4.1666668E-2,3.8873825E-2,-2.8348392E-1,1.5190852E-1,-7.7608414E-2,1.9318376E-1,-1.8869585E-1,1.8093419E-1,-9.3763016E-2],"split_indices":[282,155,156,314,83,69,385,0,0,0,0,0,0,0,0],"split_type":[0,0,0,0,0,0,0,0,0,0,0,0,0,0,0],"sum_hessian":[5.2105717E1,2.7563663E1,2.4542053E1,3.9565532E0,2.3607111E1,1.4424873E1,1.0117181E1,1.637313E0,2.31924E0,1.8058289E1,5.5488214E0,1.7374874E0,1.2687386E1,4.99945E0,5.11773E0],"tree_param":{"num_deleted":"0","num_feature":"387","num_nodes":"15","size_leaf_vector":"1"}},{"base_weights":[-2.172358E-5,2.4816397E-1,-1.4308019E-1,-6.128101E-1,4.5760494E-1,1.577802E-1,-4.0170377E-1,-3.6981087E-3,-2.4888645E-1,2.0454691E-1,-6.2376276E-2,1.9298375E-1,-4.5854922E-2,-2.2475554E-1,-2.0073012E-2],"categories":[],"categories_nodes":[],"categories_segments":[],"categories_sizes":[],"default_left":[0,0,0,0,0,0,0,0,0,0,0,0,0,0,0],"id":22,"left_children":[1,3,5,7,9,11,13,-1,-1,-1,-1,-1,-1,-1,-1],"loss_changes":[1.835499E0,3.6890712E0,2.6150517E0,5.2696E-1,2.4960341E0,2.4927487E0,2.0342076E0,0E0,0E0,0E0,0E0,0E0,0E0,0E0,0E0],"parents":[2147483647,0,0,1,1,2,2,3,3,4,4,5,5,6,6],"right_children":[2,4,6,8,10,12,14,-1,-1,-1,-1,-1,-1,-1,-1],"split_conditions":[2.2630857E-2,9.405717E-3,2.3563582E-2,2.7443344E-2,5.816589E-2,2.2038817E-2,2.9147651E-2,-3.6981087E-3,-2.4888645E-1,2.0454691E-1,-6.2376276E-2,1.9298375E-1,-4.5854922E-2,-2.2475554E-1,-2.0073012E-2],"split_indices":[333,155,198,46,162,222,362,0,0,0,0,0,0,0,0],"split_type":[0,0,0,0,0,0,0,0,0,0,0,0,0,0,0],"sum_hessian":[4.969676E1,1.790298E1,3.1793777E1,3.1261227E0,1.4776858E1,1.4877038E1,1.6916739E1,1.1096585E0,2.0164642E0,1.103473E1,3.7421284E0,5.3868213E0,9.490216E0,7.693711E0,9.223028E0],"tree_param":{"num_deleted":"0","num_feature":"387","num_nodes":"15","size_leaf_vector":"1"}},{"base_weights":[-2.563881E-3,-8.338278E-2,4.3213984E-1,-2.5716588E-1,-2.4498716E-2,6.7228717E-1,-1.03084855E-1,-2.2656703E-1,1.3247569E-2,-5.8115263E-2,2.6300794E-1],"categories":[],"categories_nodes":[],"categories_segments":[],"categories_sizes":[],"default_left":[0,0,0,0,0,0,0,0,0,0,0],"id":23,"left_children":[1,3,5,-1,7,9,-1,-1,-1,-1,-1],"loss_changes":[1.7352501E0,1.8755789E0,1.6737133E0,0E0,2.0254984E0,1.2764981E0,0E0,0E0,0E0,0E0,0E0],"parents":[2147483647,0,0,1,1,2,2,4,4,5,5],"right_children":[2,4,6,-1,8,10,-1,-1,-1,-1,-1],"split_conditions":[7.891294E-2,1.7453693E-3,5.751791E-2,-2.5716588E-1,2.0543968E-3,9.246772E-3,-1.03084855E-1,-2.2656703E-1,1.3247569E-2,-5.8115263E-2,2.6300794E-1],"split_indices":[257,177,344,0,46,328,0,0,0,0,0],"split_type":[0,0,0,0,0,0,0,0,0,0,0],"sum_hessian":[4.7366272E1,4.062211E1,6.7441635E0,1.9137977E0,3.870831E1,5.2517734E0,1.4923902E0,2.4657063E0,3.6242603E1,1.0128654E0,4.238908E0],"tree_param":{"num_deleted":"0","num_feature":"387","num_nodes":"11","size_leaf_vector":"1"}},{"base_weights":[-8.214661E-3,4.6048996E-1,-8.110765E-2,2.345921E-1,-1.0407432E-1,3.0354604E-1,-1.9225773E-1,-1.618594E-1,1.2342004E-1,2.2346358E-1,-3.49403E-2,-1.1958217E-1,2.583035E-2],"categories":[],"categories_nodes":[],"categories_segments":[],"categories_sizes":[],"default_left":[0,0,0,0,0,0,0,0,0,0,0,0,0],"id":24,"left_children":[1,3,5,-1,7,9,11,-1,-1,-1,-1,-1,-1],"loss_changes":[1.6510189E0,1.2623118E0,1.8422694E0,0E0,9.499785E-1,1.8925282E0,1.9288398E0,0E0,0E0,0E0,0E0,0E0,0E0],"parents":[2147483647,0,0,1,1,2,2,4,4,5,5,6,6],"right_children":[2,4,6,-1,8,10,12,-1,-1,-1,-1,-1,-1],"split_conditions":[7.4674916E-3,3.294122E-2,1.3549656E-2,2.345921E-1,2.4289755E-2,3.292658E-2,3.3641286E-2,-1.618594E-1,1.2342004E-1,2.2346358E-1,-3.49403E-2,-1.1958217E-1,2.583035E-2],"split_indices":[38,171,227,0,94,204,192,0,0,0,0,0,0],"split_type":[0,0,0,0,0,0,0,0,0,0,0,0,0],"sum_hessian":[4.623127E1,5.506558E0,4.0724712E1,3.2632506E0,2.243307E0,8.741682E0,3.198303E1,1.1907386E0,1.0525687E0,3.8855007E0,4.8561816E0,1.811917E1,1.3863862E1],"tree_param":{"num_deleted":"0","num_feature":"387","num_nodes":"13","size_leaf_vector":"1"}},{"base_weights":[2.9178115E-3,-3.143366E-1,1.06292084E-1,1.7341524E-1,-4.5623338E-1,3.3349508E-1,-1.8086608E-1,6.742582E-2,-1.9715396E-1,1.4277375E-1,-1.3341844E-1,1.7712567E-2,-2.0576681E-1],"categories":[],"categories_nodes":[],"categories_segments":[],"categories_sizes":[],"default_left":[0,0,0,0,0,0,0,0,0,0,0,0,0],"id":25,"left_children":[1,3,5,-1,7,9,11,-1,-1,-1,-1,-1,-1],"loss_changes":[1.5381103E0,1.7235297E0,2.366812E0,0E0,1.585316E0,2.4380696E0,2.0110426E0,0E0,0E0,0E0,0E0,0E0,0E0],"parents":[2147483647,0,0,1,1,2,2,4,4,5,5,6,6],"right_children":[2,4,6,-1,8,10,12,-1,-1,-1,-1,-1,-1],"split_conditions":[1.1752114E-2,1.0382572E-2,3.01987E-2,1.7341524E-1,1.522542E-2,7.410397E-2,2.2471121E-33,6.742582E-2,-1.9715396E-1,1.4277375E-1,-1.3341844E-1,1.7712567E-2,-2.0576681E-1],"split_indices":[173,261,184,0,62,201,223,0,0,0,0,0,0],"split_type":[0,0,0,0,0,0,0,0,0,0,0,0,0],"sum_hessian":[4.488064E1,1.0528385E1,3.4352253E1,1.0227267E0,9.505659E0,1.9088129E1,1.5264122E1,2.1388507E0,7.3668084E0,1.6463684E1,2.6244447E0,1.0946941E1,4.317181E0],"tree_param":{"num_deleted":"0","num_feature":"387","num_nodes":"13","size_leaf_vector":"1"}},{"base_weights":[-6.820646E-4,3.6376968E-1,-9.168199E-2,-2.6158708E-1,6.667378E-1,1.4387853E-1,-2.9254624E-1,-2.0504135E-1,1.00168906E-1,1.8858261E-2,2.6490083E-1,1.1186137E-1,-7.980849E-2,5.493999E-2,-1.4335085E-1],"categories":[],"categories_nodes":[],"categories_segments":[],"categories_sizes":[],"default_left":[0,0,0,0,0,0,0,0,0,0,0,0,0,0,0],"id":26,"left_children":[1,3,5,7,9,11,13,-1,-1,-1,-1,-1,-1,-1,-1],"loss_changes":[1.499405E0,1.8859202E0,1.7535597E0,1.1492946E0,7.7602005E-1,1.7247721E0,1.8373358E0,0E0,0E0,0E0,0E0,0E0,0E0,0E0,0E0],"parents":[2147483647,0,0,1,1,2,2,3,3,4,4,5,5,6,6],"right_children":[2,4,6,8,10,12,14,-1,-1,-1,-1,-1,-1,-1,-1],"split_conditions":[1.22730695E-2,2.0294141E-2,4.761905E-2,2.692313E-2,1.8694546E-2,4.502447E-2,1.3630683E-2,-2.0504135E-1,1.00168906E-1,1.8858261E-2,2.6490083E-1,1.1186137E-1,-7.980849E-2,5.493999E-2,-1.4335085E-1],"split_indices":[274,82,385,383,81,138,341,0,0,0,0,0,0,0,0],"split_type":[0,0,0,0,0,0,0,0,0,0,0,0,0,0,0],"sum_hessian":[4.3204742E1,8.033472E0,3.517127E1,2.66638E0,5.3670926E0,1.631813E1,1.8853138E1,1.4741944E0,1.1921855E0,1.7555988E0,3.6114938E0,1.0527397E1,5.790734E0,5.288373E0,1.3564766E1],"tree_param":{"num_deleted":"0","num_feature":"387","num_nodes":"15","size_leaf_vector":"1"}},{"base_weights":[4.4180956E-3,3.1271923E-1,-9.590897E-2,5.051753E-1,-1.4728968E-1,-2.3324135E-1,2.9735726E-1,2.1903029E-1,-8.91977E-2,-1.7185813E-2,-1.8629502E-1,-3.923619E-2,2.1023618E-1],"categories":[],"categories_nodes":[],"categories_segments":[],"categories_sizes":[],"default_left":[0,0,0,0,0,0,0,0,0,0,0,0,0],"id":27,"left_children":[1,3,5,7,-1,9,11,-1,-1,-1,-1,-1,-1],"loss_changes":[1.3446008E0,1.8983519E0,1.8425348E0,1.8598688E0,0E0,1.6628549E0,1.6353528E0,0E0,0E0,0E0,0E0,0E0,0E0],"parents":[2147483647,0,0,1,1,2,2,3,3,5,5,6,6],"right_children":[2,4,6,8,-1,10,12,-1,-1,-1,-1,-1,-1],"split_conditions":[1.47713E-2,3.693808E-33,6.1680075E-2,5.852869E-2,-1.4728968E-1,4.3618232E-2,2.9823959E-2,2.1903029E-1,-8.91977E-2,-1.7185813E-2,-1.8629502E-1,-3.923619E-2,2.1023618E-1],"split_indices":[14,127,20,282,0,243,378,0,0,0,0,0,0],"split_type":[0,0,0,0,0,0,0,0,0,0,0,0,0],"sum_hessian":[4.150139E1,9.669721E0,3.1831669E1,8.101181E0,1.5685399E0,2.3894419E1,7.93725E0,6.398126E0,1.7030545E0,1.7225376E1,6.6690426E0,4.17854E0,3.7587101E0],"tree_param":{"num_deleted":"0","num_feature":"387","num_nodes":"13","size_leaf_vector":"1"}},{"base_weights":[4.359197E-3,-1.8060274E-1,1.7665929E-1,-3.1448352E-1,3.5245085E-1,6.131539E-1,-5.4279074E-2,-1.5525256E-1,5.2380085E-2,1.8133034E-1,-7.88807E-2,-1.0618975E-2,2.232088E-1,1.5533149E-1,-7.920294E-2],"categories":[],"categories_nodes":[],"categories_segments":[],"categories_sizes":[],"default_left":[0,0,0,0,0,0,0,0,0,0,0,0,0,0,0],"id":28,"left_children":[1,3,5,7,9,11,13,-1,-1,-1,-1,-1,-1,-1,-1],"loss_changes":[1.3299456E0,1.5480003E0,2.209885E0,1.7410517E0,8.5890824E-1,6.6739273E-1,1.9411455E0,0E0,0E0,0E0,0E0,0E0,0E0,0E0,0E0],"parents":[2147483647,0,0,1,1,2,2,3,3,4,4,5,5,6,6],"right_children":[2,4,6,8,10,12,14,-1,-1,-1,-1,-1,-1,-1,-1],"split_conditions":[3.6408395E-2,6.1399333E-2,2.310488E-2,4.8187204E-2,5.883868E-2,1.0159653E-2,1.4830099E-2,-1.5525256E-1,5.2380085E-2,1.8133034E-1,-7.88807E-2,-1.0618975E-2,2.232088E-1,1.5533149E-1,-7.920294E-2],"split_indices":[149,375,241,370,168,17,285,0,0,0,0,0,0,0,0],"split_type":[0,0,0,0,0,0,0,0,0,0,0,0,0,0,0],"sum_hessian":[3.9730556E1,1.9137987E1,2.0592571E1,1.562394E1,3.5140464E0,6.552567E0,1.4040005E1,1.0999703E1,4.6242366E0,2.505792E0,1.0082546E0,1.2227575E0,5.3298097E0,3.3725278E0,1.0667477E1],"tree_param":{"num_deleted":"0","num_feature":"387","num_nodes":"15","size_leaf_vector":"1"}},{"base_weights":[1.3151638E-2,1.6698413E-1,-1.9085672E-1,3.0753717E-1,-3.2556453E-1,4.5894295E-1,-3.572029E-1,-1.4989784E-1,1.4024992E-1,-1.939963E-1,7.122465E-2,2.1312885E-1,-2.4226328E-2,-1.6061577E-1,6.0491208E-2],"categories":[],"categories_nodes":[],"categories_segments":[],"categories_sizes":[],"default_left":[0,0,0,0,0,0,0,0,0,0,0,0,0,0,0],"id":29,"left_children":[1,3,5,7,9,11,13,-1,-1,-1,-1,-1,-1,-1,-1],"loss_changes":[1.259523E0,1.680975E0,2.0321085E0,2.5938926E0,1.1577419E0,5.948916E-1,1.5341684E0,0E0,0E0,0E0,0E0,0E0,0E0,0E0,0E0],"parents":[2147483647,0,0,1,1,2,2,3,3,4,4,5,5,6,6],"right_children":[2,4,6,8,10,12,14,-1,-1,-1,-1,-1,-1,-1,-1],"split_conditions":[3.753216E-2,6.200394E-2,1.05772605E-2,5.2345027E-3,3.5710886E-2,4.3497782E-2,4.725664E-2,-1.4989784E-1,1.4024992E-1,-1.939963E-1,7.122465E-2,2.1312885E-1,-2.4226328E-2,-1.6061577E-1,6.0491208E-2],"split_indices":[190,145,261,182,163,279,374,0,0,0,0,0,0,0,0],"split_type":[0,0,0,0,0,0,0,0,0,0,0,0,0,0,0],"sum_hessian":[3.8118263E1,2.1835037E1,1.6283224E1,1.7279736E1,4.555302E0,2.9603229E0,1.3322902E1,2.5067368E0,1.4772999E1,2.8061924E0,1.7491099E0,1.8035585E0,1.1567645E0,1.0133776E1,3.1891263E0],"tree_param":{"num_deleted":"0","num_feature":"387","num_nodes":"15","size_leaf_vector":"1"}}]},"name":"gbtree"},"learner_model_param":{"base_score":"6.666667E-1","boost_from_average":"1","num_class":"0","num_feature":"387","num_target":"1"},"objective":{"name":"binary:logistic","reg_loss_param":{"scale_pos_weight":"1"}}},"version":[3,0,2]}