{"learner":{"attributes":{"scikit_learn":"{\"_estimator_type\": \"classifier\"}"},"feature_names":[],"feature_types":[],"gradient_booster":{"model":{"gbtree_model_param":{"num_parallel_tree":"1","num_trees":"30"},"iteration_indptr":[0,1,2,3,4,5,6,7,8,9,10,11,12,13,14,15,16,17,18,19,20,21,22,23,24,25,26,27,28,29,30],"tree_info":[0,0,0,0,0,0,0,0,0,0,0,0,0,0,0,0,0,0,0,0,0,0,0,0,0,0,0,0,0,0],"trees":[{"base_weights":[-8.852175E-8,-9.591838E-1,8.867924E-1,1.2834217E-1,-1.69962E0,4.123506E-1,3.319148E-1,-2.9032263E-1,3.3203885E-1,-3.6000007E-1,-7.7586216E-1,1.5488371E-1,-3.4137934E-1],"categories":[],"categories_nodes":[],"categories_segments":[],"categories_sizes":[],"default_left":[0,0,0,0,0,0,0,0,0,0,0,0,0],"id":0,"left_children":[1,3,5,7,9,-1,11,-1,-1,-1,-1,-1,-1],"loss_changes":[8.676088E1,3.967506E1,1.3886593E1,2.3354593E1,9.840729E0,0E0,7.6632595E0,0E0,0E0,0E0,0E0,0E0,0E0],"parents":[2147483647,0,0,1,1,2,2,3,3,4,4,6,6],"right_children":[2,4,6,8,10,-1,12,-1,-1,-1,-1,-1,-1],"split_conditions":[7.0073786E-3,9.140453E-4,1.7878909E-3,1.0188213E-3,4.961715E-3,4.123506E-1,1.6802426E-2,-2.9032263E-1,3.3203885E-1,-3.6000007E-1,-7.7586216E-1,1.5488371E-1,-3.4137934E-1],"split_indices":[2,0,0,2,0,0,0,0,0,0,0,0,0],"split_type":[0,0,0,0,0,0,0,0,0,0,0,0,0],"sum_hessian":[9.999999E1,4.7999996E1,5.1999996E1,1.9777777E1,2.8222221E1,2.6888887E1,2.5111109E1,9.333333E0,1.0444444E1,1.9555553E1,8.666666E0,2.2888887E1,2.222222E0],"tree_param":{"num_deleted":"0","num_feature":"3","num_nodes":"13","size_leaf_vector":"1"}},{"base_weights":[1.4152276E-2,-9.7639495E-1,5.040881E-1,-8.101541E-2,-1.4123439E0,1.0506575E0,-6.4069234E-2,-4.1702977E-1,1.07108854E-1,-5.1787573E-1,-2.7747843E-1,1.8410231E-1,3.593837E-1,-2.3590215E-1,1.03289306E-1],"categories":[],"categories_nodes":[],"categories_segments":[],"categories_sizes":[],"default_left":[0,0,0,0,0,0,0,0,0,0,0,0,0,0,0],"id":1,"left_children":[1,3,5,7,9,11,13,-1,-1,-1,-1,-1,-1,-1,-1],"loss_changes":[4.805653E1,1.2678831E1,2.063563E1,7.258882E0,1.766613E0,1.4413414E0,1.0127566E1,0E0,0E0,0E0,0E0,0E0,0E0,0E0,0E0],"parents":[2147483647,0,0,1,1,2,2,3,3,4,4,5,5,6,6],"right_children":[2,4,6,8,10,12,14,-1,-1,-1,-1,-1,-1,-1,-1],"split_conditions":[1.8832652E-3,7.2372187E-4,1.7878909E-3,4.4341944E-4,8.611333E-4,5.788136E-3,1.1612336E-2,-4.1702977E-1,1.07108854E-1,-5.1787573E-1,-2.7747843E-1,1.8410231E-1,3.593837E-1,-2.3590215E-1,1.03289306E-1],"split_indices":[2,0,0,2,2,2,2,0,0,0,0,0,0,0,0],"split_type":[0,0,0,0,0,0,0,0,0,0,0,0,0,0,0],"sum_hessian":[9.700925E1,3.1774662E1,6.523459E1,1.0793048E1,2.0981615E1,3.2816124E1,3.2418465E1,2.1611376E0,8.63191E0,1.1216347E1,9.765267E0,9.57498E0,2.3241144E1,1.1374686E1,2.1043777E1],"tree_param":{"num_deleted":"0","num_feature":"3","num_nodes":"15","size_leaf_vector":"1"}},{"base_weights":[1.4154177E-2,-4.6245515E-1,6.2257296E-1,-1.139683E-1,-1.164953E0,7.677105E-1,-5.8815676E-1,-2.9442844E-1,1.4175636E-1,-2.0897774E-1,-4.5123103E-1,3.1829512E-1,1.3064627E-1,-2.3462747E-1,3.2333825E-3],"categories":[],"categories_nodes":[],"categories_segments":[],"categories_sizes":[],"default_left":[0,0,0,0,0,0,0,0,0,0,0,0,0,0,0],"id":2,"left_children":[1,3,5,7,9,11,13,-1,-1,-1,-1,-1,-1,-1,-1],"loss_changes":[2.70912E1,1.2696369E1,7.6610603E0,1.8848347E1,1.6951504E0,3.1497536E0,5.8432364E-1,0E0,0E0,0E0,0E0,0E0,0E0,0E0,0E0],"parents":[2147483647,0,0,1,1,2,2,3,3,4,4,5,5,6,6],"right_children":[2,4,6,8,10,12,14,-1,-1,-1,-1,-1,-1,-1,-1],"split_conditions":[7.7155246E-3,2.842904E-3,1.2089805E-2,8.611333E-4,6.0743904E-3,1.7878909E-3,2.5818981E-2,-2.9442844E-1,1.4175636E-1,-2.0897774E-1,-4.5123103E-1,3.1829512E-1,1.3064627E-1,-2.3462747E-1,3.2333825E-3],"split_indices":[2,0,0,2,0,0,0,0,0,0,0,0,0,0,0],"split_type":[0,0,0,0,0,0,0,0,0,0,0,0,0,0,0],"sum_hessian":[9.143213E1,5.1404186E1,4.0027943E1,3.513638E1,1.6267807E1,3.606993E1,3.958011E0,1.390157E1,2.123481E1,8.11503E0,8.152777E0,1.7992914E1,1.8077017E1,2.7588818E0,1.1991292E0],"tree_param":{"num_deleted":"0","num_feature":"3","num_nodes":"15","size_leaf_vector":"1"}},{"base_weights":[9.538239E-3,-4.9070725E-1,3.8680097E-1,7.73037E-2,-7.357269E-1,3.1396848E-1,8.977323E-2,1.06001444E-1,-2.1711618E-1,-3.686437E-1,-1.5994047E-1,6.9591634E-2,-2.7925828E-1],"categories":[],"categories_nodes":[],"categories_segments":[],"categories_sizes":[],"default_left":[0,0,0,0,0,0,0,0,0,0,0,0,0],"id":3,"left_children":[1,3,5,7,9,-1,11,-1,-1,-1,-1,-1,-1],"loss_changes":[1.6406769E1,5.259755E0,9.615337E0,2.9468942E0,1.9634161E0,0E0,5.333076E0,0E0,0E0,0E0,0E0,0E0,0E0],"parents":[2147483647,0,0,1,1,2,2,3,3,4,4,6,6],"right_children":[2,4,6,8,10,-1,12,-1,-1,-1,-1,-1,-1],"split_conditions":[2.8841083E-3,6.8189536E-4,9.6657994E-4,9.9918836E-1,9.932534E-1,3.1396848E-1,1.6802426E-2,1.06001444E-1,-2.1711618E-1,-3.686437E-1,-1.5994047E-1,6.9591634E-2,-2.7925828E-1],"split_indices":[2,0,0,1,1,0,0,0,0,0,0,0,0],"split_type":[0,0,0,0,0,0,0,0,0,0,0,0,0],"sum_hessian":[8.492953E1,3.638405E1,4.8545483E1,1.1171195E1,2.5212854E1,1.4287194E1,3.4258286E1,8.723837E0,2.447358E0,5.867234E0,1.934562E1,3.0747183E1,3.5111043E0],"tree_param":{"num_deleted":"0","num_feature":"3","num_nodes":"13","size_leaf_vector":"1"}},{"base_weights":[4.3345927E-3,-3.040523E-1,4.3980172E-1,-1.3226931E-1,-1.0822781E0,8.952716E-1,1.426405E-1,-1.9282816E-1,6.339914E-2,-3.5194743E-1,-6.1647493E-2,2.8664392E-1,4.293936E-2,-1.3603444E-1,1.2823725E-1],"categories":[],"categories_nodes":[],"categories_segments":[],"categories_sizes":[],"default_left":[0,0,0,0,0,0,0,0,0,0,0,0,0,0,0],"id":4,"left_children":[1,3,5,7,9,11,13,-1,-1,-1,-1,-1,-1,-1,-1],"loss_changes":[1.0942606E1,6.2350535E0,4.4439917E0,7.1910467E0,4.3525982E-1,4.585924E-1,3.8661828E0,0E0,0E0,0E0,0E0,0E0,0E0,0E0,0E0],"parents":[2147483647,0,0,1,1,2,2,3,3,4,4,5,5,6,6],"right_children":[2,4,6,8,10,12,14,-1,-1,-1,-1,-1,-1,-1,-1],"split_conditions":[7.7155246E-3,4.961715E-3,1.7878909E-3,8.611333E-4,9.9199885E-1,9.890905E-1,3.0877758E-3,-1.9282816E-1,6.339914E-2,-3.5194743E-1,-6.1647493E-2,2.8664392E-1,4.293936E-2,-1.3603444E-1,1.2823725E-1],"split_indices":[2,0,0,2,1,1,0,0,0,0,0,0,0,0,0],"split_type":[0,0,0,0,0,0,0,0,0,0,0,0,0,0,0],"sum_hessian":[7.94877E1,4.671037E1,3.2777332E1,3.922249E1,7.4878807E0,1.2146777E1,2.0630556E1,1.5428892E1,2.3793598E1,6.4783697E0,1.0095108E0,1.0996195E1,1.1505824E0,6.478903E0,1.4151653E1],"tree_param":{"num_deleted":"0","num_feature":"3","num_nodes":"15","size_leaf_vector":"1"}},{"base_weights":[2.542047E-3,6.910513E-1,-1.3499002E-1,2.973829E-1,2.3909082E-1,2.9268867E-1,-3.29714E-1,-1.9963685E-1,2.495474E-1,-2.2786763E-1,1.4257346E-1,-2.1154791E-1,-3.2951023E-2],"categories":[],"categories_nodes":[],"categories_segments":[],"categories_sizes":[],"default_left":[0,0,0,0,0,0,0,0,0,0,0,0,0],"id":5,"left_children":[1,3,5,-1,7,9,11,-1,-1,-1,-1,-1,-1],"loss_changes":[7.262938E0,1.4957118E0,5.4218593E0,0E0,3.992828E0,4.3057694E0,3.5886831E0,0E0,0E0,0E0,0E0,0E0,0E0],"parents":[2147483647,0,0,1,1,2,2,4,4,5,5,6,6],"right_children":[2,4,6,-1,8,10,12,-1,-1,-1,-1,-1,-1],"split_conditions":[7.976663E-1,2.6815427E-3,9.140453E-4,2.973829E-1,4.830732E-1,4.4341944E-4,1.8832652E-3,-1.9963685E-1,2.495474E-1,-2.2786763E-1,1.4257346E-1,-2.1154791E-1,-3.2951023E-2],"split_indices":[1,0,0,0,1,2,2,0,0,0,0,0,0],"split_type":[0,0,0,0,0,0,0,0,0,0,0,0,0],"sum_hessian":[7.471543E1,1.1769688E1,6.2945744E1,6.354973E0,5.4147143E0,1.9535713E1,4.341003E1,2.0949726E0,3.319742E0,2.4209216E0,1.7114792E1,1.5217951E1,2.8192078E1],"tree_param":{"num_deleted":"0","num_feature":"3","num_nodes":"13","size_leaf_vector":"1"}},{"base_weights":[5.0684116E-3,1.0289806E-1,-7.60569E-1,-4.5242676E-1,2.700455E-1,-3.4484994E-2,-9.1061765E-1,-2.091155E-1,-1.5375368E-2,2.2984628E-1,4.003206E-2,-3.003494E-1,-9.740414E-2],"categories":[],"categories_nodes":[],"categories_segments":[],"categories_sizes":[],"default_left":[0,0,0,0,0,0,0,0,0,0,0,0,0],"id":6,"left_children":[1,3,5,7,9,-1,11,-1,-1,-1,-1,-1,-1],"loss_changes":[5.4856353E0,6.1457205E0,6.9923496E-1,1.4743507E0,3.3206625E0,0E0,2.4524689E-2,0E0,0E0,0E0,0E0,0E0,0E0],"parents":[2147483647,0,0,1,1,2,2,3,3,4,4,6,6],"right_children":[2,4,6,8,10,-1,12,-1,-1,-1,-1,-1,-1],"split_conditions":[1.2089805E-2,8.611333E-4,7.906492E-1,9.98801E-1,6.27351E-4,-3.4484994E-2,4.535269E-2,-2.091155E-1,-1.5375368E-2,2.2984628E-1,4.003206E-2,-3.003494E-1,-9.740414E-2],"split_indices":[0,2,1,1,0,0,2,0,0,0,0,0,0],"split_type":[0,0,0,0,0,0,0,0,0,0,0,0,0],"sum_hessian":[7.119262E1,6.3894123E1,7.298495E0,1.4387345E1,4.9506775E1,1.7094176E0,5.589077E0,8.479362E0,5.9079843E0,9.693697E0,3.981308E1,4.22718E0,1.361897E0],"tree_param":{"num_deleted":"0","num_feature":"3","num_nodes":"13","size_leaf_vector":"1"}},{"base_weights":[-1.4637407E-3,5.727102E-1,-1.04618385E-1,2.7160898E-1,1.8125586E-1,-2.7776198E-2,-7.789943E-1,-1.534346E-1,2.1415433E-1,-2.5033304E-1,1.37871895E-2,-2.6296118E-1,-7.937393E-2],"categories":[],"categories_nodes":[],"categories_segments":[],"categories_sizes":[],"default_left":[0,0,0,0,0,0,0,0,0,0,0,0,0],"id":7,"left_children":[1,3,5,-1,7,9,11,-1,-1,-1,-1,-1,-1],"loss_changes":[4.1360817E0,1.2208502E0,3.0453687E0,0E0,2.6289494E0,3.260179E0,7.000804E-2,0E0,0E0,0E0,0E0,0E0,0E0],"parents":[2147483647,0,0,1,1,2,2,4,4,5,5,6,6],"right_children":[2,4,6,-1,8,10,12,-1,-1,-1,-1,-1,-1],"split_conditions":[7.976663E-1,2.6815427E-3,1.1037161E-2,2.7160898E-1,4.830732E-1,4.4341944E-4,4.535269E-2,-1.534346E-1,2.1415433E-1,-2.5033304E-1,1.37871895E-2,-2.6296118E-1,-7.937393E-2],"split_indices":[1,0,0,0,1,2,2,0,0,0,0,0,0],"split_type":[0,0,0,0,0,0,0,0,0,0,0,0,0],"sum_hessian":[6.782077E1,9.635607E0,5.8185165E1,4.49932E0,5.1362867E0,5.3168083E1,5.017082E0,2.249813E0,2.886474E0,3.5887735E0,4.9579308E1,3.62564E0,1.3914427E0],"tree_param":{"num_deleted":"0","num_feature":"3","num_nodes":"13","size_leaf_vector":"1"}},{"base_weights":[-3.957053E-3,-1.7833087E-1,2.549726E-1,-8.285477E-1,-5.2046575E-2,2.2779915E-1,8.8002026E-2,-2.7871853E-1,-6.74854E-2,-2.164023E-1,1.1063351E-2,-9.232729E-2,9.999194E-2],"categories":[],"categories_nodes":[],"categories_segments":[],"categories_sizes":[],"default_left":[0,0,0,0,0,0,0,0,0,0,0,0,0],"id":8,"left_children":[1,3,5,7,9,-1,11,-1,-1,-1,-1,-1,-1],"loss_changes":[3.0526476E0,3.2732787E0,2.2250042E0,1.8545055E-1,2.1029692E0,0E0,2.1973085E0,0E0,0E0,0E0,0E0,0E0,0E0],"parents":[2147483647,0,0,1,1,2,2,3,3,4,4,6,6],"right_children":[2,4,6,8,10,-1,12,-1,-1,-1,-1,-1,-1],"split_conditions":[7.7155246E-3,9.914622E-1,1.4662225E-3,7.0073786E-3,4.4341944E-4,2.2779915E-1,3.0877758E-3,-2.7871853E-1,-6.74854E-2,-2.164023E-1,1.1063351E-2,-9.232729E-2,9.999194E-2],"split_indices":[2,1,0,2,2,0,0,0,0,0,0,0,0],"split_type":[0,0,0,0,0,0,0,0,0,0,0,0,0],"sum_hessian":[6.560335E1,3.9388676E1,2.6214668E1,5.5014834E0,3.3887196E1,5.637656E0,2.0577011E1,4.253893E0,1.2475905E0,3.140231E0,3.0746964E1,7.776413E0,1.2800598E1],"tree_param":{"num_deleted":"0","num_feature":"3","num_nodes":"13","size_leaf_vector":"1"}},{"base_weights":[-7.1989642E-3,5.9050653E-2,-5.856358E-1,5.5059683E-1,-4.920025E-2,-7.246334E-1,1.8754382E-2,2.5632027E-1,1.1399751E-1,1.0702982E-4,-3.3050817E-1,-2.8070405E-1,-7.362494E-2],"categories":[],"categories_nodes":[],"categories_segments":[],"categories_sizes":[],"default_left":[0,0,0,0,0,0,0,0,0,0,0,0,0],"id":9,"left_children":[1,3,5,7,9,11,-1,-1,-1,-1,-1,-1,-1],"loss_changes":[2.500931E0,3.1481137E0,6.4939713E-1,2.2826004E-1,2.5554554E0,3.3681154E-1,0E0,0E0,0E0,0E0,0E0,0E0,0E0],"parents":[2147483647,0,0,1,1,2,2,3,3,4,4,5,5],"right_children":[2,4,6,8,10,12,-1,-1,-1,-1,-1,-1,-1],"split_conditions":[1.2089805E-2,9.3692774E-1,4.1955356E-2,1.08239055E-1,5.06521E-2,1.49205E-1,1.8754382E-2,2.5632027E-1,1.1399751E-1,1.0702982E-4,-3.3050817E-1,-2.8070405E-1,-7.362494E-2],"split_indices":[0,1,0,2,2,2,0,0,0,0,0,0,0],"split_type":[0,0,0,0,0,0,0,0,0,0,0,0,0],"sum_hessian":[6.3359875E1,5.7654495E1,5.7053804E0,9.667946E0,4.798655E1,4.600738E0,1.1046423E0,2.0353854E0,7.6325603E0,4.6783398E1,1.203151E0,2.532783E0,2.067955E0],"tree_param":{"num_deleted":"0","num_feature":"3","num_nodes":"13","size_leaf_vector":"1"}},{"base_weights":[-8.609966E-3,3.348884E-1,-9.609249E-2,2.6087224E-1,-6.0744383E-3,-2.510835E-1,1.577419E-1,1.7042348E-1,-1.0369363E-1,-3.794135E-2,-2.508365E-1,2.6040784E-1,7.393851E-3],"categories":[],"categories_nodes":[],"categories_segments":[],"categories_sizes":[],"default_left":[0,0,0,0,0,0,0,0,0,0,0,0,0],"id":10,"left_children":[1,3,5,-1,7,9,11,-1,-1,-1,-1,-1,-1],"loss_changes":[1.9405818E0,2.3960645E0,2.0615253E0,0E0,1.9511759E0,2.248678E0,1.8785903E0,0E0,0E0,0E0,0E0,0E0,0E0],"parents":[2147483647,0,0,1,1,2,2,4,4,5,5,6,6],"right_children":[2,4,6,-1,8,10,12,-1,-1,-1,-1,-1,-1],"split_conditions":[6.27351E-4,9.972772E-1,1.34190945E-2,2.6087224E-1,5.3964567E-4,4.961715E-3,1.958816E-2,1.7042348E-1,-1.0369363E-1,-3.794135E-2,-2.508365E-1,2.6040784E-1,7.393851E-3],"split_indices":[0,1,2,0,2,0,2,0,0,0,0,0,0],"split_type":[0,0,0,0,0,0,0,0,0,0,0,0,0],"sum_hessian":[6.2507317E1,1.21139765E1,5.039334E1,4.113299E0,8.000677E0,3.1295303E1,1.9098038E1,2.7232418E0,5.2774353E0,2.6802568E1,4.492735E0,2.1424947E0,1.6955544E1],"tree_param":{"num_deleted":"0","num_feature":"3","num_nodes":"13","size_leaf_vector":"1"}},{"base_weights":[6.261401E-5,-6.5787816E-1,4.320286E-2,-4.8360314E-2,-2.3454578E-1,8.4241915E-1,-6.258998E-3,2.9703107E-1,7.379462E-2,-1.5034457E-1,2.4235696E-2],"categories":[],"categories_nodes":[],"categories_segments":[],"categories_sizes":[],"default_left":[0,0,0,0,0,0,0,0,0,0,0],"id":11,"left_children":[1,3,5,-1,-1,7,9,-1,-1,-1,-1],"loss_changes":[1.7883453E0,1.1263347E-1,2.3426309E0,0E0,0E0,6.064272E-2,2.4818697E0,0E0,0E0,0E0,0E0],"parents":[2147483647,0,0,1,1,2,2,5,5,6,6],"right_children":[2,4,6,-1,-1,8,10,-1,-1,-1,-1],"split_conditions":[4.4341944E-4,3.3382265E-4,5.3964567E-4,-4.8360314E-2,-2.3454578E-1,6.083254E-4,8.611333E-4,2.9703107E-1,7.379462E-2,-1.5034457E-1,2.4235696E-2],"split_indices":[2,0,2,0,0,0,2,0,0,0,0],"split_type":[0,0,0,0,0,0,0,0,0,0,0],"sum_hessian":[6.1004654E1,2.877011E0,5.812764E1,1.0340044E0,1.8430066E0,2.4533963E0,5.5674244E1,1.4374402E0,1.015956E0,7.616052E0,4.8058193E1],"tree_param":{"num_deleted":"0","num_feature":"3","num_nodes":"11","size_leaf_vector":"1"}},{"base_weights":[-1.28132E-3,4.9834225E-2,-4.617298E-1,5.301529E-1,-1.3128328E-2,-6.1918485E-1,-1.1220339E-2,2.3448215E-1,4.7695454E-2,-1.7549779E-1,8.915748E-3,-5.1283028E-2,-2.8817156E-1],"categories":[],"categories_nodes":[],"categories_segments":[],"categories_sizes":[],"default_left":[0,0,0,0,0,0,0,0,0,0,0,0,0],"id":12,"left_children":[1,3,5,7,9,11,-1,-1,-1,-1,-1,-1,-1],"loss_changes":[1.4551032E0,1.6905221E0,3.8955903E-1,4.801414E-1,1.247277E0,5.153941E-1,0E0,0E0,0E0,0E0,0E0,0E0,0E0],"parents":[2147483647,0,0,1,1,2,2,3,3,4,4,5,5],"right_children":[2,4,6,8,10,12,-1,-1,-1,-1,-1,-1,-1],"split_conditions":[1.2089805E-2,7.976663E-1,2.5818981E-2,2.6815427E-3,4.4341944E-4,1.6802426E-2,-1.1220339E-2,2.3448215E-1,4.7695454E-2,-1.7549779E-1,8.915748E-3,-5.1283028E-2,-2.8817156E-1],"split_indices":[0,1,0,0,2,0,0,0,0,0,0,0,0],"split_type":[0,0,0,0,0,0,0,0,0,0,0,0,0],"sum_hessian":[5.9846725E1,5.46695E1,5.1772285E0,5.475877E0,4.9193623E1,3.4411247E0,1.7361038E0,2.6051612E0,2.8707154E0,2.5470116E0,4.664661E1,2.1365564E0,1.3045684E0],"tree_param":{"num_deleted":"0","num_feature":"3","num_nodes":"13","size_leaf_vector":"1"}},{"base_weights":[-4.539979E-3,2.3426096E-1,-9.789508E-2,5.7569396E-1,-4.010593E-2,-7.4747527E-1,-2.8770173E-2,8.12871E-3,1.9694445E-1,1.6243088E-1,-1.1605028E-1,-3.8215555E-2,-3.0106932E-1,1.2301267E-1,-3.7238237E-2],"categories":[],"categories_nodes":[],"categories_segments":[],"categories_sizes":[],"default_left":[0,0,0,0,0,0,0,0,0,0,0,0,0,0,0],"id":13,"left_children":[1,3,5,7,9,11,13,-1,-1,-1,-1,-1,-1,-1,-1],"loss_changes":[1.3559608E0,1.6250371E0,1.9404705E0,3.227756E-1,2.309774E0,5.3315735E-1,1.7469145E0,0E0,0E0,0E0,0E0,0E0,0E0,0E0,0E0],"parents":[2147483647,0,0,1,1,2,2,3,3,4,4,5,5,6,6],"right_children":[2,4,6,8,10,12,14,-1,-1,-1,-1,-1,-1,-1,-1],"split_conditions":[9.140453E-4,9.981767E-1,1.2666011E-3,9.382293E-1,5.3964567E-4,9.94286E-1,1.7760855E-3,8.12871E-3,1.9694445E-1,1.6243088E-1,-1.1605028E-1,-3.8215555E-2,-3.0106932E-1,1.2301267E-1,-3.7238237E-2],"split_indices":[0,1,0,1,2,1,0,0,0,0,0,0,0,0,0],"split_type":[0,0,0,0,0,0,0,0,0,0,0,0,0,0,0],"sum_hessian":[5.8795036E1,1.6100597E1,4.269444E1,6.684223E0,9.416374E0,3.1624916E0,3.9531948E1,1.0293919E0,5.6548314E0,3.3074582E0,6.1089163E0,1.3619975E0,1.8004941E0,6.4679337E0,3.3064014E1],"tree_param":{"num_deleted":"0","num_feature":"3","num_nodes":"15","size_leaf_vector":"1"}},{"base_weights":[-2.2430916E-3,-5.5141014E-1,3.0780807E-2,-2.002262E-1,-5.5494618E-2,6.5549123E-1,-7.6015433E-3,2.3758903E-1,5.4713074E-2,-1.5007669E-1,1.1243785E-2],"categories":[],"categories_nodes":[],"categories_segments":[],"categories_sizes":[],"default_left":[0,0,0,0,0,0,0,0,0,0,0],"id":14,"left_children":[1,3,5,-1,-1,7,9,-1,-1,-1,-1],"loss_changes":[1.0850366E0,2.079475E-2,1.3597219E0,0E0,0E0,6.746495E-2,1.222884E0,0E0,0E0,0E0,0E0],"parents":[2147483647,0,0,1,1,2,2,5,5,6,6],"right_children":[2,4,6,-1,-1,8,10,-1,-1,-1,-1],"split_conditions":[4.4341944E-4,3.434816E-4,5.3964567E-4,-2.002262E-1,-5.5494618E-2,6.083254E-4,7.09717E-4,2.3758903E-1,5.4713074E-2,-1.5007669E-1,1.1243785E-2],"split_indices":[2,2,2,0,0,0,2,0,0,0,0],"split_type":[0,0,0,0,0,0,0,0,0,0,0],"sum_hessian":[5.789309E1,2.3934917E0,5.54996E1,1.1940383E0,1.1994535E0,2.281877E0,5.3217724E1,1.2479602E0,1.0339168E0,3.615023E0,4.96027E1],"tree_param":{"num_deleted":"0","num_feature":"3","num_nodes":"11","size_leaf_vector":"1"}},{"base_weights":[-3.6584258E-3,3.3481255E-1,-5.3177834E-2,-4.7325965E-2,6.7519635E-1,-1.23608075E-2,-6.337818E-1,1.743156E-1,-1.431872E-1,2.3696509E-1,6.052692E-2,1.701114E-1,-1.8163666E-2,-2.3739262E-1,-6.632514E-2],"categories":[],"categories_nodes":[],"categories_segments":[],"categories_sizes":[],"default_left":[0,0,0,0,0,0,0,0,0,0,0,0,0,0,0],"id":15,"left_children":[1,3,5,7,9,11,13,-1,-1,-1,-1,-1,-1,-1,-1],"loss_changes":[9.932794E-1,1.0159737E0,1.2158251E0,1.4927232E0,6.144452E-2,1.4096587E0,4.4247627E-2,0E0,0E0,0E0,0E0,0E0,0E0,0E0,0E0],"parents":[2147483647,0,0,1,1,2,2,3,3,4,4,5,5,6,6],"right_children":[2,4,6,8,10,12,14,-1,-1,-1,-1,-1,-1,-1,-1],"split_conditions":[7.976663E-1,4.830732E-1,1.08239055E-1,2.6815427E-3,3.2406923E-1,9.3692774E-1,7.303535E-3,1.743156E-1,-1.431872E-1,2.3696509E-1,6.052692E-2,1.701114E-1,-1.8163666E-2,-2.3739262E-1,-6.632514E-2],"split_indices":[1,1,2,0,2,1,0,0,0,0,0,0,0,0,0],"split_type":[0,0,0,0,0,0,0,0,0,0,0,0,0,0,0],"sum_hessian":[5.7199486E1,6.5650887E0,5.0634396E1,3.498449E0,3.0666397E0,4.8262764E1,2.37163E0,1.2785294E0,2.2199197E0,1.9305792E0,1.1360606E0,2.8787813E0,4.5383984E1,1.0524906E0,1.3191395E0],"tree_param":{"num_deleted":"0","num_feature":"3","num_nodes":"15","size_leaf_vector":"1"}},{"base_weights":[2.0036995E-3,4.552478E-2,-4.351964E-1,3.4188497E-1,-1.4429118E-2,-5.629744E-1,1.5303564E-2,2.1372174E-1,5.167162E-2,9.283839E-3,-2.5386187E-1,-4.082139E-2,-2.1705154E-1],"categories":[],"categories_nodes":[],"categories_segments":[],"categories_sizes":[],"default_left":[0,0,0,0,0,0,0,0,0,0,0,0,0],"id":16,"left_children":[1,3,5,7,9,11,-1,-1,-1,-1,-1,-1,-1],"loss_changes":[1.1216928E0,9.568094E-1,3.6031806E-1,4.464519E-1,1.7441295E0,1.969043E-1,0E0,0E0,0E0,0E0,0E0,0E0,0E0],"parents":[2147483647,0,0,1,1,2,2,3,3,4,4,5,5],"right_children":[2,4,6,8,10,12,-1,-1,-1,-1,-1,-1,-1],"split_conditions":[1.3074123E-2,9.3692774E-1,4.1955356E-2,1.08239055E-1,5.06521E-2,1.6802426E-2,1.5303564E-2,2.1372174E-1,5.167162E-2,9.283839E-3,-2.5386187E-1,-4.082139E-2,-2.1705154E-1],"split_indices":[0,1,0,2,2,0,0,0,0,0,0,0,0],"split_type":[0,0,0,0,0,0,0,0,0,0,0,0,0],"sum_hessian":[5.6910133E1,5.2572662E1,4.337473E0,8.054705E0,4.4517956E1,3.3097634E0,1.0277097E0,1.524882E0,6.529823E0,4.3128025E1,1.3899322E0,1.4093856E0,1.9003779E0],"tree_param":{"num_deleted":"0","num_feature":"3","num_nodes":"13","size_leaf_vector":"1"}},{"base_weights":[-1.8588164E-3,1.9860995E-1,-7.6965235E-2,2.3613853E-2,6.1746347E-1,-2.6172053E-2,-2.3177284E-1,1.266922E-1,-4.7574844E-2,9.086548E-3,2.3250799E-1,1.2442595E-1,-3.0189276E-2],"categories":[],"categories_nodes":[],"categories_segments":[],"categories_sizes":[],"default_left":[0,0,0,0,0,0,0,0,0,0,0,0,0],"id":17,"left_children":[1,3,5,7,9,11,-1,-1,-1,-1,-1,-1,-1],"loss_changes":[8.803566E-1,1.1536615E0,1.4819916E0,9.590965E-1,4.0737367E-1,1.3765864E0,0E0,0E0,0E0,0E0,0E0,0E0,0E0],"parents":[2147483647,0,0,1,1,2,2,3,3,4,4,5,5],"right_children":[2,4,6,8,10,12,-1,-1,-1,-1,-1,-1,-1],"split_conditions":[9.140453E-4,2.8841083E-3,9.977188E-1,5.3964567E-4,9.5294577E-1,1.1729486E-3,-2.3177284E-1,1.266922E-1,-4.7574844E-2,9.086548E-3,2.3250799E-1,1.2442595E-1,-3.0189276E-2],"split_indices":[0,2,1,2,1,2,0,0,0,0,0,0,0],"split_type":[0,0,0,0,0,0,0,0,0,0,0,0,0],"sum_hessian":[5.6454994E1,1.4938315E1,4.1516678E1,1.12813635E1,3.656952E0,3.965846E1,1.858218E0,3.1250591E0,8.156304E0,1.0259345E0,2.6310172E0,5.0692863E0,3.4589172E1],"tree_param":{"num_deleted":"0","num_feature":"3","num_nodes":"13","size_leaf_vector":"1"}},{"base_weights":[2.0780382E-3,-1.9247964E-1,2.6429268E-2,4.7893506E-1,-2.9038332E-2,2.4071047E-2,2.7675772E-1,-3.8658857E-2,4.3909334E-2],"categories":[],"categories_nodes":[],"categories_segments":[],"categories_sizes":[],"default_left":[0,0,0,0,0,0,0,0,0],"id":18,"left_children":[1,-1,3,5,7,-1,-1,-1,-1],"loss_changes":[9.162072E-1,0E0,1.4254994E0,1.0221921E0,9.1257733E-1,0E0,0E0,0E0,0E0],"parents":[2147483647,0,0,2,2,3,3,4,4],"right_children":[2,-1,4,6,8,-1,-1,-1,-1],"split_conditions":[3.434816E-4,-1.9247964E-1,3.8459292E-4,3.325288E-4,1.34190945E-2,2.4071047E-2,2.7675772E-1,-3.8658857E-2,4.3909334E-2],"split_indices":[2,0,0,0,2,0,0,0,0],"split_type":[0,0,0,0,0,0,0,0,0],"sum_hessian":[5.637092E1,1.1308712E0,5.5240044E1,5.1982355E0,5.004181E1,3.3595555E0,1.8386803E0,3.2060818E1,1.7980993E1],"tree_param":{"num_deleted":"0","num_feature":"3","num_nodes":"9","size_leaf_vector":"1"}},{"base_weights":[4.031825E-3,4.3300312E-2,-3.4226176E-1,1.1798026E-2,1.81378E-1,-4.7893134E-1,-1.8006602E-3,3.0836444E-2,-4.8439484E-2,-3.9401267E-2,-2.3027425E-1],"categories":[],"categories_nodes":[],"categories_segments":[],"categories_sizes":[],"default_left":[0,0,0,0,0,0,0,0,0,0,0],"id":19,"left_children":[1,3,5,7,-1,9,-1,-1,-1,-1,-1],"loss_changes":[7.8387403E-1,9.0671575E-1,2.6699305E-1,8.0416054E-1,0E0,3.168291E-1,0E0,0E0,0E0,0E0,0E0],"parents":[2147483647,0,0,1,1,2,2,3,3,5,5],"right_children":[2,4,6,8,-1,10,-1,-1,-1,-1,-1],"split_conditions":[1.2089805E-2,7.745826E-3,2.5818981E-2,2.6893327E-3,1.81378E-1,1.6802426E-2,-1.8006602E-3,3.0836444E-2,-4.8439484E-2,-3.9401267E-2,-2.3027425E-1],"split_indices":[0,0,0,0,0,0,0,0,0,0,0],"split_type":[0,0,0,0,0,0,0,0,0,0,0],"sum_hessian":[5.5554638E1,5.0682392E1,4.8722463E0,4.895579E1,1.7265996E0,3.1625614E0,1.7096847E0,3.2365566E1,1.6590225E1,2.0948884E0,1.067673E0],"tree_param":{"num_deleted":"0","num_feature":"3","num_nodes":"11","size_leaf_vector":"1"}},{"base_weights":[1.0600412E-3,-4.794887E-1,2.8649176E-2,-1.773733E-1,-4.3295562E-2,4.3814677E-1,-1.0806791E-2,-2.1915663E-2,2.1151869E-1,-2.5639036E-1,1.0320316E-2],"categories":[],"categories_nodes":[],"categories_segments":[],"categories_sizes":[],"default_left":[0,0,0,0,0,0,0,0,0,0,0],"id":20,"left_children":[1,3,5,-1,-1,7,9,-1,-1,-1,-1],"loss_changes":[7.5863487E-1,3.1049192E-2,8.7848294E-1,0E0,0E0,7.032713E-1,1.9482832E0,0E0,0E0,0E0,0E0],"parents":[2147483647,0,0,1,1,2,2,5,5,6,6],"right_children":[2,4,6,-1,-1,8,10,-1,-1,-1,-1],"split_conditions":[4.4341944E-4,3.434816E-4,6.151063E-4,-1.773733E-1,-4.3295562E-2,5.7240843E-4,7.09717E-4,-2.1915663E-2,2.1151869E-1,-2.5639036E-1,1.0320316E-2],"split_indices":[2,2,2,0,0,0,2,0,0,0,0],"split_type":[0,0,0,0,0,0,0,0,0,0,0],"sum_hessian":[5.5185112E1,2.1069279E0,5.3078182E1,1.0071139E0,1.0998138E0,3.776694E0,4.930149E1,1.5446589E0,2.2320352E0,1.5965472E0,4.770494E1],"tree_param":{"num_deleted":"0","num_feature":"3","num_nodes":"11","size_leaf_vector":"1"}},{"base_weights":[-5.218808E-3,4.089099E-1,-3.253497E-2,2.1932347E-1,-2.8258437E-2,-2.3431852E-1,-1.5726428E-3,1.9498347E-1,-1.1274338E-2],"categories":[],"categories_nodes":[],"categories_segments":[],"categories_sizes":[],"default_left":[0,0,0,0,0,0,0,0,0],"id":21,"left_children":[1,3,5,-1,-1,-1,7,-1,-1],"loss_changes":[6.4563245E-1,6.414341E-1,1.235551E0,0E0,0E0,0E0,1.2501405E0,0E0,0E0],"parents":[2147483647,0,0,1,1,2,2,6,6],"right_children":[2,4,6,-1,-1,-1,8,-1,-1],"split_conditions":[3.0107173E-4,9.9906975E-1,3.325288E-4,2.1932347E-1,-2.8258437E-2,-2.3431852E-1,3.8459292E-4,1.9498347E-1,-1.1274338E-2],"split_indices":[0,1,0,0,0,0,0,0,0],"split_type":[0,0,0,0,0,0,0,0,0],"sum_hessian":[5.48969E1,2.532545E0,5.2364353E1,1.2676555E0,1.2648897E0,1.1176848E0,5.124667E1,1.7910279E0,4.9455643E1],"tree_param":{"num_deleted":"0","num_feature":"3","num_nodes":"9","size_leaf_vector":"1"}},{"base_weights":[-4.0046262E-4,2.8011838E-1,-3.8178504E-2,-8.508434E-2,1.8528087E-1,-5.171724E-3,-4.8578632E-1,-1.3786626E-1,5.6854237E-2,-9.187197E-3,1.736434E-1,-1.9876422E-1,-3.128997E-2],"categories":[],"categories_nodes":[],"categories_segments":[],"categories_sizes":[],"default_left":[0,0,0,0,0,0,0,0,0,0,0,0,0],"id":22,"left_children":[1,3,5,7,-1,9,11,-1,-1,-1,-1,-1,-1],"loss_changes":[6.015778E-1,8.829655E-1,7.364798E-1,5.102177E-1,0E0,7.2516394E-1,1.6180933E-1,0E0,0E0,0E0,0E0,0E0,0E0],"parents":[2147483647,0,0,1,1,2,2,3,3,5,5,6,6],"right_children":[2,4,6,8,-1,10,12,-1,-1,-1,-1,-1,-1],"split_conditions":[7.976663E-1,4.830732E-1,1.08239055E-1,6.3299835E-1,1.8528087E-1,6.61098E-2,7.303535E-3,-1.3786626E-1,5.6854237E-2,-9.187197E-3,1.736434E-1,-1.9876422E-1,-3.128997E-2],"split_indices":[1,1,2,2,0,2,0,0,0,0,0,0,0],"split_type":[0,0,0,0,0,0,0,0,0,0,0,0,0],"sum_hessian":[5.475711E1,5.73765E0,4.9019463E1,3.114854E0,2.6227956E0,4.6595078E1,2.4243853E0,1.0328318E0,2.0820222E0,4.555708E1,1.0379957E0,1.1532685E0,1.271117E0],"tree_param":{"num_deleted":"0","num_feature":"3","num_nodes":"13","size_leaf_vector":"1"}},{"base_weights":[1.4271805E-3,3.386089E-2,-3.3015552E-1,-4.1687574E-2,2.3168172E-1,-1.4672625E-1,-3.010127E-3,2.4450349E-2,-1.9751929E-1,-8.1807524E-2,1.1777162E-1],"categories":[],"categories_nodes":[],"categories_segments":[],"categories_sizes":[],"default_left":[0,0,0,0,0,0,0,0,0,0,0],"id":23,"left_children":[1,3,5,7,9,-1,-1,-1,-1,-1,-1],"loss_changes":[6.0702807E-1,7.774644E-1,2.5098467E-1,2.9424596E0,1.2715842E0,0E0,0E0,0E0,0E0,0E0,0E0],"parents":[2147483647,0,0,1,1,2,2,3,3,4,4],"right_children":[2,4,6,8,10,-1,-1,-1,-1,-1,-1],"split_conditions":[1.3074123E-2,3.4124642E-3,2.5818981E-2,2.6893327E-3,2.0402765E-3,-1.4672625E-1,-3.010127E-3,2.4450349E-2,-1.9751929E-1,-8.1807524E-2,1.1777162E-1],"split_indices":[0,0,0,0,2,0,0,0,0,0,0],"split_type":[0,0,0,0,0,0,0,0,0,0,0],"sum_hessian":[5.440482E1,5.037525E1,4.029566E0,3.702467E1,1.3350584E1,2.3400009E0,1.6895652E0,3.1583637E1,5.4410324E0,3.0607083E0,1.0289875E1],"tree_param":{"num_deleted":"0","num_feature":"3","num_nodes":"11","size_leaf_vector":"1"}},{"base_weights":[-3.6139274E-3,-1.307141E-1,2.0688856E-2,3.642682E-1,-1.3750898E-2,1.49918115E-2,2.2987826E-1,-2.287601E-1,7.225095E-3],"categories":[],"categories_nodes":[],"categories_segments":[],"categories_sizes":[],"default_left":[0,0,0,0,0,0,0,0,0],"id":24,"left_children":[1,-1,3,5,7,-1,-1,-1,-1],"loss_changes":[5.842727E-1,0E0,6.2999094E-1,5.742749E-1,1.4056611E0,0E0,0E0,0E0,0E0],"parents":[2147483647,0,0,2,2,3,3,4,4],"right_children":[2,-1,4,6,8,-1,-1,-1,-1],"split_conditions":[4.4341944E-4,-1.307141E-1,6.151063E-4,5.889576E-4,7.09717E-4,1.49918115E-2,2.2987826E-1,-2.287601E-1,7.225095E-3],"split_indices":[2,0,2,2,2,0,0,0,0],"split_type":[0,0,0,0,0,0,0,0,0],"sum_hessian":[5.3780106E1,1.9622928E0,5.181781E1,3.848388E0,4.7969425E1,2.790761E0,1.0576271E0,1.3859375E0,4.6583485E1],"tree_param":{"num_deleted":"0","num_feature":"3","num_nodes":"9","size_leaf_vector":"1"}},{"base_weights":[-5.349906E-3,3.930592E-1,-3.0177096E-2,1.9714323E-1,-1.0452879E-2,-1.932416E-1,-7.394432E-4,1.9385742E-1,-9.699435E-3],"categories":[],"categories_nodes":[],"categories_segments":[],"categories_sizes":[],"default_left":[0,0,0,0,0,0,0,0,0],"id":25,"left_children":[1,3,5,-1,-1,-1,7,-1,-1],"loss_changes":[5.505471E-1,3.919574E-1,9.4285965E-1,0E0,0E0,0E0,1.0592833E0,0E0,0E0],"parents":[2147483647,0,0,1,1,2,2,6,6],"right_children":[2,4,6,-1,-1,-1,8,-1,-1],"split_conditions":[3.0107173E-4,9.9906975E-1,3.3382265E-4,1.9714323E-1,-1.0452879E-2,-1.932416E-1,3.8459292E-4,1.9385742E-1,-9.699435E-3],"split_indices":[0,1,0,0,0,0,0,0,0],"split_type":[0,0,0,0,0,0,0,0,0],"sum_hessian":[5.346013E1,2.2659512E0,5.1194176E1,1.0699095E0,1.1960418E0,1.3869079E0,4.980727E1,1.413235E0,4.8394035E1],"tree_param":{"num_deleted":"0","num_feature":"3","num_nodes":"9","size_leaf_vector":"1"}},{"base_weights":[1.0611061E-4,2.4211582E-2,-3.5000992E-1,3.3362907E-1,-1.36175165E-2,-1.5464275E-1,1.0925094E-2,-1.3719428E-2,2.1640486E-1,8.10836E-3,-1.1547936E-1],"categories":[],"categories_nodes":[],"categories_segments":[],"categories_sizes":[],"default_left":[0,0,0,0,0,0,0,0,0,0,0],"id":26,"left_children":[1,3,5,7,9,-1,-1,-1,-1,-1,-1],"loss_changes":[4.670425E-1,6.1050934E-1,2.4669814E-1,8.682945E-1,7.211082E-1,0E0,0E0,0E0,0E0,0E0,0E0],"parents":[2147483647,0,0,1,1,2,2,3,3,4,4],"right_children":[2,4,6,8,10,-1,-1,-1,-1,-1,-1],"split_conditions":[1.6802426E-2,7.976663E-1,4.1955356E-2,4.830732E-1,5.5924647E-2,-1.5464275E-1,1.0925094E-2,-1.3719428E-2,2.1640486E-1,8.10836E-3,-1.1547936E-1],"split_indices":[0,1,0,1,2,0,0,0,0,0,0],"split_type":[0,0,0,0,0,0,0,0,0,0,0],"sum_hessian":[5.333458E1,5.076992E1,2.5646596E0,4.679039E0,4.609088E1,1.5619057E0,1.0027539E0,2.810848E0,1.868191E0,4.2379116E1,3.7117662E0],"tree_param":{"num_deleted":"0","num_feature":"3","num_nodes":"11","size_leaf_vector":"1"}},{"base_weights":[-1.1256E-4,-7.8366295E-2,1.2422844E-1,-2.4424548E-1,-1.6554955E-2,2.2591819E-1,5.1806666E-2,-4.4468205E-2,7.633728E-2,-2.0137894E-1,3.9202265E-2],"categories":[],"categories_nodes":[],"categories_segments":[],"categories_sizes":[],"default_left":[0,0,0,0,0,0,0,0,0,0,0],"id":27,"left_children":[1,3,5,-1,7,-1,9,-1,-1,-1,-1],"loss_changes":[5.362761E-1,1.5249E0,9.3050694E-1,0E0,1.1876574E0,0E0,1.2376136E0,0E0,0E0,0E0,0E0],"parents":[2147483647,0,0,1,1,2,2,4,4,6,6],"right_children":[2,4,6,-1,8,-1,10,-1,-1,-1,-1],"split_conditions":[7.7155246E-3,9.890315E-1,8.798724E-3,-2.4424548E-1,2.3610669E-3,2.2591819E-1,1.0526303E-2,-4.4468205E-2,7.633728E-2,-2.0137894E-1,3.9202265E-2],"split_indices":[2,1,2,0,0,0,2,0,0,0,0],"split_type":[0,0,0,0,0,0,0,0,0,0,0],"sum_hessian":[5.3114365E1,3.2825474E1,2.0288893E1,1.6006165E0,3.1224857E1,1.1247264E0,1.9164165E1,2.1319677E1,9.905179E0,1.1460189E0,1.8018147E1],"tree_param":{"num_deleted":"0","num_feature":"3","num_nodes":"11","size_leaf_vector":"1"}},{"base_weights":[-2.889757E-3,1.1427738E-1,-8.633322E-2,2.32148E-2,2.3754735E-1,-2.518448E-1,1.31483255E-2,-1.979452E-2,1.4393806E-1,1.2576184E-1,-3.4562632E-2],"categories":[],"categories_nodes":[],"categories_segments":[],"categories_sizes":[],"default_left":[0,0,0,0,0,0,0,0,0,0,0],"id":28,"left_children":[1,3,5,7,-1,-1,9,-1,-1,-1,-1],"loss_changes":[5.3594834E-1,1.389106E0,2.4083943E0,8.9257276E-1,0E0,0E0,1.5727282E0,0E0,0E0,0E0,0E0],"parents":[2147483647,0,0,1,1,2,2,3,3,6,6],"right_children":[2,4,6,8,-1,-1,10,-1,-1,-1,-1],"split_conditions":[1.7760855E-3,1.5778946E-3,2.0944686E-3,9.407754E-3,2.3754735E-1,-2.518448E-1,2.6893327E-3,-1.979452E-2,1.4393806E-1,1.2576184E-1,-3.4562632E-2],"split_indices":[0,0,0,2,0,0,0,0,0,0,0],"split_type":[0,0,0,0,0,0,0,0,0,0,0],"sum_hessian":[5.2809086E1,2.1812105E1,3.0996983E1,2.0139599E1,1.6725062E0,2.7487001E0,2.8248283E1,1.7563839E1,2.575759E0,6.240505E0,2.2007778E1],"tree_param":{"num_deleted":"0","num_feature":"3","num_nodes":"11","size_leaf_vector":"1"}},{"base_weights":[2.685311E-3,1.6539818E-1,-5.4146376E-2,3.299776E-2,2.0805024E-1,-6.39978E-1,3.4924387E-3,5.9464537E-2,-1.2898654E-1,-4.441885E-2,-2.5373873E-1,9.747499E-2,-1.9527733E-2],"categories":[],"categories_nodes":[],"categories_segments":[],"categories_sizes":[],"default_left":[0,0,0,0,0,0,0,0,0,0,0,0,0],"id":29,"left_children":[1,3,5,7,-1,9,11,-1,-1,-1,-1,-1,-1],"loss_changes":[5.025274E-1,9.6044105E-1,1.363423E0,1.0255861E0,0E0,2.4090469E-1,8.5213614E-1,0E0,0E0,0E0,0E0,0E0,0E0],"parents":[2147483647,0,0,1,1,2,2,3,3,5,5,6,6],"right_children":[2,4,6,8,-1,10,12,-1,-1,-1,-1,-1,-1],"split_conditions":[9.140453E-4,7.96112E-4,1.2666011E-3,6.27351E-4,2.0805024E-1,9.94286E-1,1.7760855E-3,5.9464537E-2,-1.2898654E-1,-4.441885E-2,-2.5373873E-1,9.747499E-2,-1.9527733E-2],"split_indices":[0,0,0,0,0,1,0,0,0,0,0,0,0],"split_type":[0,0,0,0,0,0,0,0,0,0,0,0,0],"sum_hessian":[5.2374992E1,1.3063374E1,3.931162E1,1.1294273E1,1.7691001E0,2.6163375E0,3.669528E1,8.745168E0,2.5491056E0,1.2789555E0,1.3373822E0,5.795788E0,3.0899492E1],"tree_param":{"num_deleted":"0","num_feature":"3","num_nodes":"13","size_leaf_vector":"1"}}]},"name":"gbtree"},"learner_model_param":{"base_score":"6.666667E-1","boost_from_average":"1","num_class":"0","num_feature":"3","num_target":"1"},"objective":{"name":"binary:logistic","reg_loss_param":{"scale_pos_weight":"1"}}},"version":[3,0,2]}